//=========================================================================
// cordic.h
//=========================================================================
// @brief: A header file that defines the key data types and parameters.

#ifndef __WEIGHTS_H__
#define __WEIGHTS_H__

// Include the Vivado HLS ap_int & ap_fixed headers
#include "ap_fixed.h"
#include "ap_int.h"

const float biases_conv1[64] = {
    -0.01176384929567580,0.02824148349463940,0.01994615979492660,0.02388462610542770,
    0.10643870383501100,-0.04997690394520760,0.07301034033298490,-0.10369886457920100,
    0.08083610981702810,0.06694554537534710,0.03781059011816980,-0.54355710744857800,
    0.34849911928176900,0.01280592009425160,-0.03676173463463780,-0.01808106899261470,
    0.02625141665339470,0.02831929922103880,-0.02448885329067710,0.07117693126201630,
    -0.04439388588070870,0.53295415639877300,-0.01458951830863950,0.02064373530447480,
    0.01073703169822690,-0.00000342367388839193,0.00505943829193711,-0.00815950240939856,
    0.00475228624418378,-0.22015391290187800,0.02498359046876430,0.03730739653110500,
    -0.10309524089098000,0.02236785367131230,-0.01179910730570550,0.03291306272149090,
    -0.38909578323364300,0.03134837001562120,0.02003266289830210,-0.13081388175487500,
    0.01042754948139190,-0.000056750144722173,0.00843245163559914,-0.00166211102623492,
    -0.00877537671476603,-0.02798184007406230,-0.01562776789069180,-0.08467572182416920,
    0.17066358029842400,0.03811756521463390,-0.0000879837389220484,-0.02940623834729190,
    0.00011061697296100,-0.03803608939051630,-0.02415696345269680,0.08273869007825850,
    0.00835924129933119,-0.01931455731391910,-0.01437738351523880,0.03217799961566930,
    -0.10986738651990900,0.07670994102954870,0.08344590663909910,0.00386781734414399
};

const float biases_conv2[32] = {
    0.0101271094754338,-0.0254997741430998,0.0626176744699478,0.0503665879368782,
    0.0282950811088085,-0.0322164818644524,0.0118995085358620,-0.0204368364065886,
    0.00341769796796143,0.0173434205353260,0.0713699236512184,0.0556086450815201,
    0.0972290188074112,-0.151117965579033,0.0121465735137463,-0.00315558374859393,
    -0.0208464134484530,-0.0441049002110958,-0.0105815827846527,0.0111627243459225,
    0.0616350658237934,0.0555023439228535,0.0473150946199894,-0.0239135473966599,
    0.00952905416488648,0.0793787315487862,-0.0475422181189060,0.0201804228127003,
    0.0121173104271293,0.0186930373311043,-0.0773212388157845,0.0117071056738496
};

const float biases_conv3[1] = {-0.0205572117120028};

const float weights_conv1[81][64] = {
    {0.0837068334221840,0.0868755355477333,0.0215783044695854,0.0332367159426212,0.262604534626007,0.181699767708778,-0.0318539217114449,0.0300567317754030,-0.0555486194789410,0.130691930651665,-0.0378992669284344,0.0635396987199783,-0.0594423301517963,-0.0899168327450752,0.0840840712189674,0.00756885623559356,-0.0839056745171547,0.0745549872517586,-0.0450326465070248,0.0948084071278572,0.0658138990402222,-0.0297463275492191,0.0770339295268059,0.0240836273878813,-0.0101780733093619,0.000396133429603651,0.00345270847901702,-0.0313429124653339,0.0300371758639812,0.0871554538607597,0.251656055450439,0.300241798162460,0.202423974871635,-0.0756659433245659,0.0923886820673943,0.000317238969728351,0.0130694778636098,0.0213122796267271,0.0237735044211149,0.0595793388783932,0.0456050224602222,-0.000672134163323790,0.0133498301729560,-0.117099978029728,0.0150535823777318,0.0631931126117706,0.152048006653786,-0.0381877161562443,-0.0856468826532364,0.0650511533021927,-0.000153171262354590,-0.121586009860039,-0.00157825276255608,-0.0195342507213354,0.0230502039194107,-0.0743604898452759,0.0262345727533102,-0.0493971519172192,-0.162294149398804,0.0882122889161110,0.189339250326157,-0.0645451173186302,0.0210202559828758,0.00746988365426660},
    {-0.00172614410985261,-0.117038078606129,-0.0318387635052204,-0.137908190488815,0.00930331647396088,-0.0297166220843792,-0.0390417948365212,-0.0399407036602497,-0.0820655673742294,-0.127313882112503,0.128144279122353,-0.0152187487110496,0.0495610609650612,-0.0512588247656822,0.0201850086450577,-0.0211990680545568,0.0990565568208695,-0.112118475139141,-0.0205373689532280,-0.143538236618042,0.0541505105793476,0.0240882653743029,-0.0931005477905273,-0.0461727567017078,-0.00730844633653760,-0.00121218338608742,-0.00174678792245686,-0.114020675420761,-0.0399881638586521,0.0141839692369103,-0.0422436743974686,0.0335508547723293,-0.0484215207397938,0.0219186395406723,0.0155306775122881,-0.00781265459954739,-0.105577059090137,0.0771102830767632,-0.0141233727335930,-0.0443813875317574,-0.0658510848879814,0.000460114562883973,-0.0281252749264240,0.0590175054967403,0.0528639890253544,-0.0960568711161614,-0.0877142846584320,0.142748951911926,0.0190330352634192,-0.0900349467992783,-0.000361895276000723,0.00436575710773468,-0.000483686279039830,0.0120121510699391,-0.0477456785738468,0.0839261785149574,0.00294032413512468,0.117307275533676,-0.0355168357491493,-0.0601492077112198,-0.0504012405872345,-0.266114354133606,0.135802149772644,0.0271336659789085},
    {-0.122706726193428,-0.117248795926571,-0.0241197887808085,0.329083472490311,-0.0354421809315681,-0.108106113970280,-0.0139572918415070,0.121929481625557,0.0819959789514542,0.138170301914215,0.100544467568398,0.122759692370892,-0.0192005727440119,0.0994677096605301,-0.137142568826675,0.0568982511758804,0.00899453740566969,-0.0489247404038906,-0.131161630153656,0.0241835024207830,-0.181788206100464,-0.0441709123551846,-0.0464463084936142,-0.0921816602349281,-0.0110490983352065,-0.000905035820323974,-0.105307437479496,0.109784632921219,0.118211746215820,0.0214202739298344,0.0585746243596077,-0.0939657837152481,0.00927919056266546,-0.0509710982441902,-0.0110673662275076,-0.0187875032424927,-0.0255819223821163,0.0649237185716629,-0.00333625287748873,-0.0160932932049036,-0.0615987405180931,0.000330176757415757,-0.0131603199988604,-0.0288412440568209,0.0872440412640572,0.0478866659104824,-0.135588988661766,-0.0568232424557209,0.113752186298370,-0.0761281102895737,-0.000418208423070610,0.135719820857048,0.000502930721268058,0.185490265488625,0.000338458019541577,0.125168025493622,0.0100095057860017,0.0574011206626892,0.245736420154572,-0.0514743700623512,-0.126685395836830,0.144517272710800,-0.0682982280850411,0.0483781397342682},
    {0.0780870243906975,0.0912358909845352,0.0395674407482147,0.557773172855377,0.0588687434792519,0.00607336964458227,0.00468222843483090,0.275710582733154,0.252037107944489,0.146316006779671,0.430327355861664,-0.0228511039167643,0.0123632708564401,-0.0204341523349285,0.0911877155303955,0.0999100729823113,0.00225745071657002,0.0707601830363274,-0.149009808897972,0.136592909693718,-0.119561210274696,-0.194243818521500,-0.0908593162894249,-0.102716103196144,-0.0206978507339954,0.00003.5764158333186,-0.0822187885642052,0.0617283545434475,-0.00296177086420357,0.0531878359615803,0.0838594138622284,0.166708886623383,0.224753379821777,0.0741442814469338,0.0446368008852005,-0.0329973623156548,-0.0603324361145496,0.0819418355822563,0.0402518399059773,-0.00174737954512239,0.0479277074337006,0.000793365528807044,0.0431692115962505,0.0274485684931278,0.0717692077159882,0.103622980415821,-0.0636092722415924,-0.0425066612660885,-0.00739941839128733,-0.0517634153366089,0.00107186043169349,-0.0658440366387367,-0.00216626306064427,0.188832014799118,-0.0932820886373520,0.0608956553041935,0.0493638031184673,0.0496571548283100,0.0830233618617058,0.113884277641773,0.105514742434025,-0.0678323432803154,0.0551175288856030,0.0455304495990276},
    {0.0501468926668167,0.176237180829048,0.0637775361537933,0.539312839508057,0.0357300601899624,0.0972657799720764,0.00693232007324696,0.159102618694305,0.0269430298358202,0.0200285073369741,0.664343655109406,-0.179005503654480,0.0782611966133118,-0.160058990120888,0.173046663403511,-0.0395523011684418,0.0831585451960564,-0.00135942397173494,-0.0153042292222381,-0.00830467045307159,0.0439612157642841,-0.300039440393448,-0.0216585304588079,-0.0417239442467690,-0.0288347247987986,-0.00188753253314644,0.00858929194509983,-0.0992866009473801,-0.0947415605187416,0.00995400547981262,-0.0131899295374751,0.194859877228737,0.477508306503296,0.147413209080696,0.0666583403944969,-0.0577585734426975,-0.0519943870604038,-0.0774137005209923,0.0539621673524380,-0.0354270003736019,0.0893418714404106,0.000643696344923228,0.0418867506086826,-0.0668770074844360,-0.00450563291087747,-0.0215611774474382,0.00917912740260363,0.126462742686272,-0.0456796288490295,0.0433726608753204,0.000429724546847865,-0.0302680693566799,0.000925155065488070,0.141345962882042,-0.0877185091376305,0.0346292480826378,0.0372381396591663,0.119477853178978,-0.235923022031784,0.176072090864182,-0.0117644788697362,-0.614994406700134,0.197016745805740,-0.00498153036460280},
    {-0.0461822710931301,0.0644803419709206,0.0288269855082035,0.376560032367706,-0.0339716821908951,0.0439797826111317,0.0490549430251122,-0.0496202930808067,-0.117719195783138,0.172098904848099,0.267014712095261,0.0213937126100063,-0.00418415013700724,0.105432957410812,-0.0741281360387802,-0.0913705304265022,0.0112671293318272,-0.0470588840544224,0.103558868169785,-0.102777652442455,0.0438896827399731,-0.176386937499046,-0.0132863847538829,0.0281414799392223,-0.0393847413361073,-0.000153899745782837,0.0463437959551811,0.0755534619092941,0.0710622668266296,-0.0742231681942940,0.0464646629989147,-0.114342994987965,0.608675062656403,0.0747008845210075,-0.0632211863994598,-0.0747606530785561,-0.0566311553120613,-0.0730455890297890,0.0150220822542906,-0.0858579799532890,0.0262331552803516,0.000403003708925098,-0.00930654909461737,-0.0586985945701599,-0.0669078677892685,-0.101729929447174,-0.00558068091049790,0.0594366863369942,0.0623779147863388,-0.00697434693574905,-0.000264114671153948,0.164523556828499,0.00108418252784759,0.213969841599464,0.0470013730227947,0.0679772645235062,-0.0141220288351178,0.0324829779565334,-0.149280175566673,0.0537638030946255,-0.290634751319885,-0.456889867782593,0.126948505640030,-0.0539315156638622},
    {0.0936412438750267,-0.0583114735782146,-0.0409709066152573,0.185696855187416,-0.0600160695612431,-0.0215751789510250,0.0584295466542244,-0.155344694852829,-0.0236580725759268,0.194136768579483,-0.153552398085594,0.0953656062483788,-0.0411280132830143,0.258507490158081,-0.161116510629654,0.0155827207490802,-0.0766347944736481,0.0281318631023169,0.0779492035508156,0.120040073990822,0.00193911720998585,-0.0612766556441784,-0.0831745266914368,0.0512432865798473,-0.0437623895704746,-0.00188616209197789,0.0217196065932512,0.0313325151801109,0.0976975858211517,-0.0733318179845810,0.0520415231585503,-0.0582400076091290,0.337470084428787,-0.0404088906943798,-0.0641337037086487,-0.0747703015804291,-0.0369329415261745,0.0961454808712006,-0.0536387264728546,-0.0811319500207901,-0.0215114299207926,-0.000897129939403385,-0.0537746138870716,0.0300460346043110,-0.112978115677834,-0.0337198078632355,-0.0161993633955717,-0.0424930602312088,-0.0166892427951098,-0.0197967831045389,-0.000910518283490092,0.109109401702881,0.000423612160375342,0.239356324076653,0.110276870429516,-0.0283264238387346,-0.0672955363988876,0.0341703891754150,0.0616645291447640,-0.112308472394943,-0.0816677361726761,0.0412415564060211,0.139947682619095,-0.0948046967387199},
    {0.173353508114815,-0.0330814011394978,-0.0277999918907881,-0.193602830171585,0.110730521380901,-0.0214615985751152,-0.0208122041076422,-0.184750840067863,0.0714014396071434,-0.0216171033680439,0.101223073899746,-0.148366719484329,0.0390537828207016,-0.117645248770714,-0.0907806009054184,-0.0224910322576761,-0.0787807628512383,0.00413824291899800,0.0165869295597076,0.0444233343005180,0.00303042912855744,0.0459522716701031,0.0236603654921055,-0.00404949812218547,-0.0415739528834820,0.00177804415579885,-0.0174689069390297,-0.0712322667241097,-0.0634982585906982,0.00844400003552437,-0.0661032795906067,0.137165755033493,-0.157692074775696,-0.0457783490419388,0.0445458106696606,-0.0577514134347439,-0.122329078614712,-0.109417170286179,-0.0424691699445248,-0.0802263915538788,-0.000851996825076640,0.000130531188915484,-0.0383517555892468,-0.0630152300000191,-0.0873837247490883,-0.0312586016952992,0.0988981574773789,0.0102941244840622,-0.166648387908936,0.0169823244214058,0.00254552485421300,-0.0570682995021343,-0.000807887816336006,0.0514735244214535,0.0171397663652897,-0.145122841000557,-0.0572914294898510,0.171550735831261,-0.229060679674149,-0.107837475836277,0.169776260852814,-0.137931272387505,0.145711317658424,-0.0704872310161591},
    {-0.0282467361539602,0.0822504088282585,0.133619651198387,0.109370514750481,0.00932878721505404,-0.0165071710944176,-0.0728564038872719,0.103239007294178,-0.0871637836098671,0.0717422142624855,0.0446088388562202,0.0633859261870384,-0.0675564408302307,-0.0476823784410954,-0.00596834439784288,-0.0732736214995384,0.0598154552280903,0.243672683835030,0.0921544879674912,0.0267118383198977,0.00418958580121398,-0.0214450675994158,-0.0916820243000984,-0.000347058696206659,-0.0359418876469135,0.000170160550624132,0.0234603844583035,-0.0664393752813339,0.00954368803650141,-0.0620727650821209,0.211420491337776,0.0420058965682983,0.0525838620960712,0.0799650996923447,0.0787616819143295,-0.0322570502758026,-0.00525784818455577,-0.0889045894145966,0.135366842150688,0.104303844273090,0.0334266908466816,-0.000772661471273750,0.0270486045628786,0.0393940024077892,0.0592000149190426,-0.0295063368976116,0.0917874649167061,0.121436879038811,0.0734884887933731,-0.0524345152080059,-0.000998138799332082,-0.0330044403672218,0.00131779559887946,-0.112646795809269,-0.150296822190285,0.0895182341337204,0.0456002205610275,-0.105784058570862,-0.148020938038826,0.106363780796528,0.00133020768407732,-0.00869899988174439,-0.0498781502246857,0.0693656876683235},
    {0.0139659633859992,-0.0469962768256664,-0.0404702611267567,-0.0741751864552498,-0.0480206497013569,0.0497214198112488,-0.107339955866337,-0.107639260590076,0.204879656434059,-0.145936191082001,-0.112951889634132,0.0915872901678085,-0.0347903221845627,0.103638000786304,0.161008805036545,-0.0415680333971977,0.0959041416645050,0.0558658689260483,0.00136055995244533,-0.105692788958550,0.114300630986691,0.0928571075201035,-0.0165846757590771,0.119789257645607,-0.00895225908607245,0.000245750270551071,0.0363581888377667,0.222410872578621,-0.156049281358719,0.0442058108747005,-0.0792926847934723,0.0765215158462524,-0.0462197512388229,-0.000643063744064421,0.0985004529356957,-0.0162463448941708,0.144447565078735,-0.0383461862802506,-0.0262650083750486,0.0228295475244522,-0.0251373481005430,0.000794538937043399,-0.0207095481455326,-0.0640801265835762,0.0128880934789777,0.0752375796437264,0.0386597476899624,-0.122504509985447,0.122063294053078,0.222399979829788,0.000484005111502484,-0.0113554950803518,0.0000935184434638359,-0.0744082555174828,-0.00993023067712784,-0.213634625077248,0.00377559009939432,-0.0290379915386438,0.0524314269423485,-0.0232157576829195,-0.0766462981700897,0.0912842303514481,-0.109963610768318,0.00265866238623858},
    {0.168393269181252,0.0157985463738441,0.0226264521479607,-0.145505502820015,-0.138966798782349,0.0256599280983210,0.0201985314488411,0.131688117980957,-0.119537591934204,-0.107727557420731,-0.142777636647224,-0.125764429569244,0.150789231061935,0.0871758535504341,0.246845409274101,-0.0673254802823067,0.0210847686976194,0.0553152561187744,0.0574023127555847,-0.0576042234897614,0.113711006939411,-0.0872297435998917,-0.141561105847359,0.0180795118212700,-0.00642109056934714,0.0000816951360320672,0.108350820839405,-0.0508017539978027,-0.258542776107788,0.0597563460469246,-0.229295954108238,-0.163181081414223,-0.0311611816287041,0.0797106027603149,-0.000872811709996313,-0.0221031736582518,0.0544234700500965,0.214009523391724,0.0386889800429344,0.0614459738135338,-0.00188409863039851,-0.00142996571958065,0.0157137811183929,0.101383544504642,0.0673620030283928,-0.0712271481752396,-0.0780677199363709,0.168639063835144,0.0948453247547150,-0.0503000766038895,0.000180084025487304,-0.0205581299960613,-0.000614015036262572,-0.0505295619368553,-0.0354622714221478,0.0493462234735489,0.0479984208941460,-0.0826309546828270,0.164357304573059,0.0932814851403236,-0.141382142901421,0.0148520171642303,-0.113043360412121,0.0599221326410770},
    {-0.0206374097615480,-0.0883740410208702,0.0106576252728701,-0.0554999448359013,-0.166595593094826,-0.141815960407257,0.136895686388016,0.229279533028603,-0.0792711973190308,-0.0248090121895075,-0.132958486676216,-0.0103405583649874,-0.0122592439875007,0.126649111509323,-0.00237180665135384,-0.0676146671175957,-0.115293249487877,-0.0515596717596054,-0.0253379773348570,0.0493477582931519,-0.118388444185257,0.160878285765648,0.0625521764159203,-0.0635366216301918,-0.00475783133879304,0.00139238452538848,-0.0333607606589794,0.132590353488922,-0.0374358035624027,-0.111197367310524,-0.163621574640274,-0.169061526656151,-0.0245962254703045,-0.0266900192946196,-0.0344686061143875,-0.0240349378436804,0.136033505201340,0.0483578927814961,0.0384947955608368,0.0548789277672768,-0.0655200853943825,-0.000636601063888520,-0.00845777802169323,-0.0293902382254601,0.0829854011535645,0.0351087413728237,-0.0357353352010250,-0.198588177561760,0.0796771273016930,0.0936421230435371,-0.000344156083883718,0.0405352897942066,-0.00133680226281285,-0.159468695521355,0.0635374039411545,-0.168384149670601,0.0337211266160011,-0.152358189225197,0.245762124657631,0.0204063039273024,-0.0114008225500584,0.281035274267197,-0.0813679695129395,0.0732392445206642},
    {-0.0958350002765656,0.00300844525918365,0.0475987270474434,-0.128781706094742,-0.0178960226476192,-0.111284419894218,0.168318748474121,0.274924665689468,-0.0176092870533466,-0.120980389416218,0.104984082281590,-0.0436931513249874,-0.00372305698692799,-0.0812174007296562,0.0666004046797752,-0.0264225639402866,-0.0980653837323189,-0.0205646250396967,-0.0634142085909843,0.0830114707350731,-0.0748709067702293,0.593208551406860,0.240979447960854,-0.0910681635141373,-0.00837312079966068,0.0000420016003772616,-0.0426145754754543,-0.00543053727596998,-0.0935797542333603,-0.155411317944527,-0.229127496480942,-0.105232007801533,-0.0548548772931099,0.0631891638040543,0.00840100366622210,-0.0334448181092739,0.109174229204655,0.0371007211506367,0.0663644000887871,0.0363338515162468,-0.0156904775649309,-0.000846676295623183,0.0213843584060669,0.186115637421608,0.0817987248301506,0.0990449264645577,-0.00314065208658576,-0.204300388693810,-0.0909339860081673,0.152401268482208,0.000439935654867440,-0.154143020510674,-0.000353198382072151,-0.324464708566666,0.101726442575455,-0.356862396001816,0.0514114350080490,-0.226358041167259,0.181922599673271,0.0933904051780701,0.348681390285492,0.137269318103790,-0.165108546614647,0.0773146227002144},
    {-0.217274367809296,0.136095583438873,0.0869743898510933,-0.145695701241493,0.0195000860840082,0.0373784378170967,0.118279695510864,0.199856191873550,-0.270251393318176,-0.208249464631081,0.262087732553482,-0.107473678886890,0.132404640316963,-0.230884715914726,0.137399509549141,-0.0898142755031586,0.0458468496799469,-0.00383973028510809,-0.00542232999578118,-0.0845292434096336,0.0780441090464592,0.717536211013794,0.295421481132507,-0.00809529423713684,-0.0182740446180105,0.00118678016588092,0.0758728384971619,-0.256480067968369,-0.166772872209549,-0.0735989138484001,-0.330370783805847,-0.219973251223564,-0.0581091195344925,0.0883139073848724,0.0140614761039615,-0.0479118227958679,0.125935286283493,-0.000291350210318342,0.0910649895668030,0.0583385601639748,0.0560927465558052,-0.000573999539483339,0.0415105707943440,0.239316120743752,0.0222638696432114,0.0226101223379374,-0.0415098704397678,0.107376798987389,-0.0854300931096077,0.0285902563482523,-0.00157802202738822,-0.135750100016594,0.000185242926818319,-0.317455738782883,0.181051746010780,-0.107824295759201,0.0551744177937508,-0.217866197228432,0.108981184661388,0.190310955047607,0.289447307586670,-0.217577382922173,-0.348976641893387,0.0411535240709782},
    {-0.263661921024323,0.0213400106877089,0.0563138313591480,-0.162586212158203,-0.0876655429601669,0.00294745876453817,0.113413758575916,0.0775227621197701,-0.148589357733727,-0.157516524195671,0.130593448877335,0.0867347866296768,0.00711139198392630,0.0299657583236694,-0.0319985412061214,-0.102549210190773,0.146782696247101,-0.0590441711246967,0.0430609919130802,-0.361862182617188,0.102428399026394,0.557906806468964,0.124592252075672,0.0935368165373802,-0.0313877016305923,0.000840683933347464,0.0713430419564247,-0.0783655643463135,0.0161108262836933,-0.0892823785543442,-0.240715146064758,-0.248662620782852,0.0757290720939636,0.0169570222496986,-0.109686225652695,-0.0604642927646637,0.128486678004265,-0.107987247407436,0.0573557429015636,0.00163093011360616,-0.00295785348862410,-0.000413418747484684,-0.00670731626451016,0.245477586984634,-0.0256621744483709,0.00842505320906639,-0.124211192131042,0.0179019123315811,0.115242809057236,-0.108276747167110,-0.000169723454746418,0.0138071915134788,0.000919615442398936,-0.348101705312729,0.119359038770199,0.107166044414043,0.00670811627060175,-0.275549471378326,0.260925173759460,0.0611631274223328,0.00652310764417052,-0.272628337144852,-0.257014214992523,0.00450187223032117},
    {-0.161999836564064,0.0331315435469151,0.0345911532640457,-0.00793715659528971,-0.0724019706249237,0.0458288230001926,0.107159383594990,0.0746028050780296,0.0286775305867195,-0.0593003332614899,-0.0850095152854919,0.117216087877750,-0.0228843446820974,0.165968582034111,-0.100780121982098,0.0802569538354874,0.0501501522958279,-0.0607094094157219,0.0208727922290564,-0.0540910474956036,0.0777857527136803,0.119973093271256,-0.0747863054275513,0.106577478349209,-0.0369719862937927,-0.00204916577786207,0.0414250455796719,0.0611069984734058,0.0861498937010765,-0.0204793587327003,-0.0675166249275208,-0.138256266713142,0.0645689964294434,-0.152196034789085,-0.109576366841793,-0.0566961392760277,0.155959889292717,-0.0304070916026831,0.0203677583485842,0.0595617853105068,0.0247929692268372,-0.000299500301480293,-0.00965561904013157,0.134351193904877,-0.0616144388914108,0.133607655763626,-0.130782663822174,-0.0763730853796005,0.104662582278252,-0.0739694833755493,-0.000446228048531339,0.0383782200515270,-0.000658352568279952,-0.177536994218826,0.0910023450851440,0.100849799811840,-0.0162417925894260,-0.155597940087318,0.245623126626015,0.0105225248262286,0.0306648183614016,0.0291175805032253,-0.0959875956177712,-0.0273328088223934},
    {-0.248344585299492,0.174202755093575,0.0712071657180786,-0.0700745955109596,0.202115163207054,0.125686705112457,0.0191905684769154,0.00930415093898773,0.101154856383801,-0.0676601529121399,0.0434600077569485,-0.141575798392296,0.115616276860237,-0.158799082040787,-0.110338293015957,0.174927353858948,-0.0439966842532158,-0.156226918101311,0.0109776845201850,0.0181046538054943,0.0573193505406380,-0.0290031656622887,0.123436994850636,-0.00800982769578695,-0.0315113365650177,-0.000140307616675273,0.0361608117818832,0.123818919062614,-0.0412032492458820,0.135069593787193,-0.104718349874020,-0.253007769584656,-0.139114037156105,-0.218872159719467,-0.0331164933741093,-0.0341261774301529,0.0698097050189972,-0.168297544121742,0.0400694422423840,0.0983197242021561,0.118576236069202,-0.000349061185261235,0.0435736738145351,-0.103461585938931,-0.0378153845667839,0.157235205173492,-0.00414260290563107,-0.0144414035603404,-0.0692010298371315,0.0506481789052486,0.000273552897851914,-0.00759737053886056,0.000416758499341086,-0.0221954975277185,0.122914075851440,-0.0400513894855976,0.0192023310810328,0.0584289580583572,-0.186676919460297,0.102028727531433,0.0457872115075588,-0.0881458073854446,-0.206273064017296,-0.00606512371450663},
    {-0.144044443964958,-0.0372440777719021,0.0306423269212246,-0.0115809766575694,-0.0337796695530415,-0.104271672666073,-0.00737073365598917,-0.0118529833853245,0.194902792572975,-0.215791255235672,-0.0631345063447952,0.0848875492811203,-0.0271639414131641,0.127553448081017,-0.00320460763759911,0.0887129977345467,0.129697814583778,-0.0709871947765350,0.110365152359009,-0.101157523691654,-0.00682000583037734,0.0595171563327313,-0.0135060101747513,-0.0358912274241447,-0.0221697743982077,-0.000638986355625093,0.0814492776989937,0.152828961610794,0.0368469879031181,-0.0143202831968665,-0.0495364032685757,-0.0291782747954130,0.00932439044117928,-0.0467952378094196,-0.00950337201356888,-0.00699533056467772,0.142143905162811,-0.0749218016862869,0.0223055258393288,0.110074795782566,-0.000644804851617664,0.00132521556224674,0.00335829542018473,-0.0238559264689684,0.0333799496293068,0.0749937891960144,-0.00530703924596310,-0.207119226455688,0.0769743919372559,0.149340048432350,0.00111554155591875,-0.0168537255376577,-0.00105065875686705,-0.0878123268485069,0.0232042297720909,-0.0617159605026245,0.00142513134051114,-0.0391013883054256,-0.0221304539591074,-0.0374483950436115,-0.128575265407562,0.0724401250481606,-0.0808475911617279,0.0325082093477249},
    {-0.0961089581251144,0.0490157641470432,-0.0259904935956001,0.00698879780247808,-0.0744642540812492,0.112158201634884,-0.166126206517220,-0.251169830560684,0.0189573168754578,0.00790656078606844,-0.0672995746135712,0.145387366414070,-0.0720734521746635,0.00440752133727074,-0.00503341155126691,0.0618137456476688,-0.0130471410229802,0.177080392837524,0.0214528068900108,0.148590311408043,0.144187569618225,-0.0339872464537621,0.00317326351068914,0.106020748615265,-0.0104340054094791,0.00168839201796800,-0.0308173652738333,-0.0803243964910507,-0.00324237765744329,-0.00496152276173234,0.100981846451759,-0.100304245948792,-0.203218340873718,-0.0689867585897446,0.0367612689733505,-0.0197793617844582,-0.0273513253778219,-0.105332620441914,-0.0232966113835573,-0.00391344353556633,0.0248470492660999,0.000198078894754872,0.00407826807349920,0.0885448381304741,-0.0252112522721291,-0.0166897345334291,0.0344800129532814,0.0934761986136437,-0.0827543884515762,-0.0796168372035027,0.000998477102257311,-0.0257875565439463,-0.00121923943515867,0.184322983026505,0.0124337244778872,0.0854001417756081,0.0131344674155116,0.187042027711868,-0.0822813287377358,0.0512457750737667,0.153684079647064,0.130026832222939,0.0569724664092064,-0.0160863846540451},
    {-0.00516043230891228,-0.0529082454741001,-0.0254349540919065,-0.0792036205530167,-0.128780737519264,-0.0503414981067181,0.0383267663419247,-0.165346398949623,-0.0798268988728523,0.0650689303874970,-0.00218833074904978,-0.0399380475282669,-0.00692165829241276,-0.145215496420860,-0.0132849738001823,0.0132859479635954,-0.0190265607088804,0.00976891815662384,0.0787323340773583,-0.0133690778166056,0.132185593247414,0.0823569670319557,0.0630545392632484,0.00138933688867837,-0.00716034928336740,-0.00129468203522265,0.0389403030276299,-0.335719555616379,-0.0492416061460972,-0.0846913531422615,-0.117166206240654,-0.142004787921906,-0.00354335061274469,0.0132992882281542,-0.115086667239666,-0.0185831859707832,-0.132082641124725,-0.0107650505378842,-0.00430714152753353,-0.133391559123993,-0.0482858121395111,0.00103557750117034,-0.0231525003910065,0.0895585939288139,0.00454408908262849,-0.0947789847850800,0.0898574143648148,0.142734393477440,-0.0830733925104141,-0.241482973098755,-0.000622119987383485,0.0333426073193550,0.00115067837759852,-0.101419880986214,-0.0877857059240341,0.272083431482315,0.0105534205213189,-0.104975499212742,-0.0878089442849159,0.0234066415578127,-0.0830332338809967,-0.248046815395355,0.0210530031472445,0.0128282113000751},
    {0.0198049508035183,-0.0640792399644852,-0.0269501954317093,-0.129840478301048,-0.186344176530838,-0.124136961996555,0.126613974571228,-0.0884477421641350,0.0365114808082581,0.191189944744110,-0.204329535365105,0.187546133995056,-0.105717100203037,0.00780900754034519,-0.252808421850204,0.103555828332901,-0.154937297105789,-0.115264885127544,0.0108998762443662,0.00500793894752860,-0.104612439870834,-0.349762111902237,0.0453820861876011,-0.0497337616980076,-0.00192079588305205,0.000469409220386297,-0.0533267296850681,0.188238635659218,0.214217171072960,-0.125521942973137,0.189107969403267,-0.106866687536240,-0.193611949682236,-0.159444361925125,-0.120886549353600,-0.00594163406640291,-0.0733689889311791,-0.194513022899628,-0.00705034798011184,-0.0715332105755806,-0.0575099177658558,-0.000691764755174518,-0.0337807722389698,-0.335048496723175,-0.0126950154080987,-0.000894352153409272,0.209523886442184,-0.158208966255188,0.0256028417497873,-0.139934346079826,0.00104264321271330,0.130338370800018,-0.00145251443609595,0.0664536580443382,0.0693663805723190,0.171315014362335,0.00210180436260998,0.0395689755678177,-0.329111784696579,0.0102289617061615,-0.189452081918716,0.103557445108891,0.140587031841278,0.00164073565974832},
    {0.00793550070375204,0.0403432399034500,0.0157671514898539,-0.245027884840965,-0.0917005166411400,-0.0601461194455624,0.0295899659395218,-0.0584419183433056,0.155236527323723,0.0420644208788872,-0.415148764848709,0.217524036765099,-0.0871423929929733,-0.0102924434468150,-0.198598667979240,0.167329758405685,-0.0906589552760124,-0.116922765970230,-0.0166701748967171,0.0147029962390661,-0.0979597866535187,-0.312473475933075,0.0335692912340164,-0.0524067580699921,0.00222168467007577,-0.000447471189545468,-0.0692663341760635,0.264692276716232,0.165743574500084,-0.0335955172777176,0.222209662199020,-0.0816316306591034,-0.350361019372940,-0.0562026947736740,0.0258212350308895,-0.00479281321167946,-0.0785707756876946,-0.0836229845881462,0.0241374503821135,-0.0188797749578953,0.00432224338874221,0.0000883049069670960,-0.000441823794972152,-0.244236469268799,-0.00945086777210236,0.0650750026106834,0.193394348025322,-0.0935048535466194,-0.0911951214075089,0.0756586566567421,-0.00145266577601433,-0.0177849251776934,0.000854768848512322,0.0825277119874954,0.0851322859525681,-0.163518190383911,0.0238588321954012,0.109348267316818,-0.326626777648926,0.0905417799949646,0.0702678635716438,0.370248883962631,0.0714101418852806,0.00853289384394884},
    {0.0624779723584652,0.172721609473228,0.0652313232421875,-0.183315783739090,-0.0798106119036675,0.106871686875820,-0.187129810452461,-0.0581405796110630,-0.112051956355572,-0.0637404248118401,-0.538232326507568,0.0486106947064400,0.0188750792294741,-0.0190016161650419,-0.0268479790538549,0.0495406873524189,0.0159692540764809,-0.0474028401076794,0.0273363310843706,0.0768887922167778,-0.00257762568071485,-0.243293762207031,-0.0640947371721268,0.0482033006846905,-0.000924181891605258,-0.000929022673517466,0.0516884140670300,0.0253888834267855,-0.0222478769719601,0.173971369862556,0.0943349748849869,-0.0706972926855087,-0.429563999176025,0.00814704596996307,0.109865479171276,-0.00701029272750020,-0.0354526080191135,0.136699795722961,0.0623506754636765,0.0394241921603680,0.0785604938864708,-0.000328490219544619,0.0256178975105286,-0.168437972664833,-0.0432171300053597,-0.0519289858639240,0.0617126971483231,0.251756191253662,-0.106859169900417,0.0271128881722689,-0.000413868227042258,-0.0276891943067312,0.00115419132634997,0.190785750746727,0.0735949501395226,-0.0429994836449623,0.0378304757177830,0.126170247793198,-0.107646122574806,0.196214362978935,0.0387836657464504,0.497227519750595,-0.149587795138359,-0.00662370631471276},
    {0.281907349824905,0.00319569371640682,0.0240787286311388,-0.199485898017883,-0.242923229932785,0.0403117090463638,-0.271646946668625,-0.0405822955071926,0.0721380412578583,-0.0556939244270325,-0.399780452251434,0.0775071159005165,-0.180218875408173,0.198297545313835,0.0312134288251400,-0.0507283955812454,0.0500158481299877,-0.0467594899237156,0.0246474109590054,-0.0603788681328297,-0.00606497563421726,-0.315206944942474,-0.287021249532700,0.165997639298439,-0.0130941970273852,0.000178970964043401,0.0247717406600714,0.0436095446348190,-0.00462611159309745,0.113194905221462,0.0876519381999970,0.249322026968002,-0.318533688783646,0.0370506271719933,0.00735989725217223,-0.0106720030307770,-0.0615703687071800,0.118736132979393,0.0262384712696075,-0.0724236592650414,-0.0112281525507569,0.000735282199457288,-0.0300848372280598,-0.0332493335008621,-0.0729572102427483,-0.149691075086594,-0.0664000213146210,0.0664035007357597,0.0819204971194267,-0.0965017080307007,0.000298015685984865,0.0358202308416367,-0.000528041680809110,-0.0268332641571760,-0.170676067471504,0.0458398461341858,-0.0140419565141201,-0.0176783800125122,0.249936014413834,0.0328474827110767,-0.170293048024178,0.390061706304550,0.0532174035906792,-0.0371569879353046},
    {0.428694486618042,0.0197295695543289,0.0119864782318473,-0.0311813391745091,-0.226872131228447,0.0803334340453148,-0.221158266067505,0.0843931585550308,0.132419437170029,0.0995330810546875,-0.172586739063263,0.0629767477512360,-0.182702451944351,0.142627596855164,0.116260565817356,0.0711940452456474,-0.131587296724319,0.00813775788992643,-0.0441488921642304,0.296635389328003,-0.0128145143389702,-0.388579457998276,-0.384777873754501,0.156030356884003,-0.0202741399407387,-0.00142457254696637,-0.0252957753837109,0.00946157798171043,0.00563251739367843,0.0174181777983904,0.159925550222397,0.398449480533600,-0.168517395853996,-0.0316563956439495,-0.0162090025842190,0.00364640913903713,-0.0632038488984108,0.202384680509567,-0.000547555217053741,-0.0609414801001549,0.0192994736135006,0.000564152200240642,-0.0263591688126326,0.0208080578595400,-0.0968542471528053,-0.0611494071781635,-0.0874875336885452,-0.0100724799558520,0.103919431567192,-0.125503942370415,-0.00164788763504475,0.00731481378898025,-0.000626282184384763,-0.0637825354933739,-0.248524963855743,0.0831736996769905,-0.0303489137440920,-0.0336891487240791,0.282944738864899,-0.00375024648383260,-0.0569885410368443,0.329497635364532,0.181901797652245,-0.0564982406795025},
    {0.0331470929086208,0.0975069478154182,0.0358193628489971,-0.0451836772263050,0.0721842050552368,0.0919123142957687,-0.188857495784760,-0.0308009460568428,-0.00346004054881632,0.102759517729282,0.0985883176326752,-0.127404123544693,-0.0179854314774275,-0.326043546199799,0.0467951074242592,0.0875201299786568,-0.128383904695511,-0.105722427368164,-0.0732020810246468,0.102421753108501,-0.00361444032751024,0.107722230255604,0.110305480659008,-0.00368169136345387,-0.0174950696527958,-0.000755008193664253,-0.0916713699698448,-0.146278992295265,-0.0627596452832222,-0.0134686110541224,-0.0597645714879036,0.00177589931990951,-0.0280502326786518,-0.0509633235633373,0.0433868877589703,0.0223004780709744,-0.125529944896698,0.00921608414500952,0.0130859613418579,-0.0926008895039558,0.0804077982902527,0.000453504384495318,0.0229783859103918,-0.000437516602687538,-0.0511546023190022,0.0134829552844167,0.0153494626283646,0.0901635140180588,-0.0890691578388214,-0.0272999480366707,-0.00196844083257020,-0.0444049425423145,-0.00133059802465141,-0.0815928950905800,-0.110747471451759,-0.0356446206569672,-0.00000415421527577564,0.0103305755183101,-0.00973620917648077,0.0474102236330509,0.102179609239101,-0.103189028799534,-0.0419854819774628,-0.0200925190001726},
    {0.198428511619568,-0.0378511659801006,-0.0269315410405397,-0.0935520678758621,-0.0146233597770333,-0.0820032283663750,-0.0744574889540672,-0.0549554452300072,-0.348321527242661,0.0405565910041332,-0.163877382874489,0.118956752121449,-0.0605171360075474,-0.0229615606367588,0.0804943814873695,-0.146593585610390,-0.0797172412276268,-0.0642229318618774,-0.00620653759688139,-0.0406165793538094,-0.0842632651329041,-0.0743309557437897,0.150486320257187,-0.0696808919310570,-0.00661332113668323,0.00160843180492520,-0.0514907278120518,-0.0390708036720753,0.0451452285051346,-0.0415011569857597,0.0668449625372887,0.0256025716662407,-0.0337238311767578,-0.0695828795433044,0.0188170112669468,0.0449948757886887,-0.0372714586555958,0.0728688091039658,-0.0476074032485485,-0.0564691461622715,0.0164529941976070,-0.000824655173346400,-0.000754082924686372,-0.0217467136681080,-0.00334428949281573,-0.0541035868227482,0.0380495488643646,-0.0187621992081404,-0.00314137316308916,-0.0395499542355537,-0.00189423933625221,0.0423493385314941,-0.000645860447548330,0.267824560403824,0.0949395596981049,0.111319415271282,-0.0197173189371824,0.161028191447258,0.0837185159325600,-0.0665942728519440,-0.0434891730546951,0.192960187792778,0.0929689854383469,-0.0135996723547578},
    {0.0471381247043610,0.226014077663422,0.0115738548338413,0.179368868470192,0.00590898375958204,0.216500520706177,-0.0230215098708868,-0.0797455906867981,0.0407528132200241,0.0895215198397636,0.0958324149250984,-0.0191889703273773,-0.0358356125652790,0.0955523848533630,0.124215632677078,0.0406485497951508,-0.0270710457116365,0.141424775123596,0.0248052459210157,0.130903184413910,0.0709488689899445,-0.200945198535919,-0.0754325017333031,0.0588548555970192,-0.0184318516403437,-0.000503838411532342,0.0302666295319796,0.00825315434485674,-0.102798812091351,0.0971444174647331,0.0703197121620178,0.125188007950783,0.0629910454154015,0.0722655504941940,0.0762517973780632,-0.00870059058070183,-0.0217122938483953,-0.0437167771160603,-0.00112584198359400,-0.00128749886061996,0.120765082538128,-0.00192165118642151,0.0562915317714214,0.131374374032021,-0.0337344408035278,-0.00433418434113264,-0.0703950747847557,0.0125174326822162,-0.342067211866379,0.0566700212657452,-0.00137418869417161,-0.190334126353264,0.000716886715963483,0.179106354713440,0.0146731929853559,-0.281783014535904,0.0456922799348831,0.158046424388886,0.000518461281899363,0.189166769385338,0.428122371435165,0.129079863429070,0.230528548359871,-0.0214083176106215},
    {-0.0594837665557861,0.00191175483632833,-0.0313298963010311,0.125464230775833,0.0386801250278950,-0.0351383909583092,0.116416580975056,-0.123533993959427,-0.141788169741631,0.0550371557474136,0.254103094339371,-0.0492233261466026,0.0241337586194277,-0.213193729519844,-0.0127321183681488,-0.0719720348715782,0.0154198659583926,-0.0123974177986383,0.0432567633688450,-0.0214059948921204,0.100815050303936,0.494637221097946,0.222852736711502,-0.0313950292766094,-0.0124164810404181,-0.000452974083600566,0.0548810325562954,-0.414582133293152,-0.0450991652905941,-0.0782032608985901,-0.225447013974190,-0.0854987353086472,0.351826816797256,0.159035906195641,-0.167254567146301,-0.000816262327134609,-0.123025916516781,-0.00187191646546125,-0.0205408483743668,-0.154613003134727,-0.0197312608361244,-0.000837707775644958,-0.0129188094288111,0.176364749670029,-0.0143795032054186,-0.0775053203105927,0.0786179304122925,0.0549005083739758,-0.220240235328674,-0.0392703153192997,-0.000468645390355960,0.146206334233284,0.000810667581390590,-0.307489424943924,-0.0333552174270153,0.101618118584156,0.0134684490039945,-0.186659261584282,0.0929941460490227,0.0440741404891014,-0.119829870760441,-0.357871443033218,-0.00147808506153524,-0.00488943513482809},
    {0.0519554242491722,0.000374241935787722,-0.0352191776037216,-0.0522905364632607,-0.0768448263406754,-0.0823080167174339,0.154284775257111,-0.0919721946120262,0.0151206646114588,0.118401207029819,0.125938355922699,0.277402013540268,-0.0110566215589643,-0.00167172565124929,-0.235508665442467,0.0816434547305107,-0.0250415503978729,0.0135943349450827,-0.0223160628229380,-0.0972202420234680,-0.0556176304817200,-0.292595118284225,-0.00688774185255170,-0.0438373275101185,-0.00612390646710992,-0.000555170816369355,-0.0314878374338150,0.0992219969630241,0.285292118787766,-0.00529248081147671,0.171894654631615,-0.0405510254204273,0.0368663854897022,-0.0336498692631722,-0.145330145955086,0.0192339289933443,-0.0514975264668465,-0.197984680533409,-0.0239388626068831,-0.0468238741159439,-0.0188861731439829,0.000804571434855461,-0.0175976175814867,-0.236598685383797,-0.0272409152239561,0.0310428123921156,0.201989650726318,-0.129773959517479,0.0810837149620056,-0.180704399943352,0.00172163394745439,0.210045769810677,-0.000157743008458056,0.0328987464308739,0.0478680096566677,0.425564676523209,0.00642351247370243,0.158935189247131,-0.255606949329376,0.0361154675483704,-0.414044618606567,-0.201845064759254,0.191900268197060,-0.0169183220714331},
    {-0.133564293384552,-0.0399114154279232,-0.0230553634464741,-0.180388987064362,0.00799577124416828,-0.118478111922741,0.0186490789055824,-0.153023183345795,0.239800646901131,-0.116370484232903,-0.142988547682762,0.285413593053818,-0.0326746664941311,0.0290955752134323,-0.285936117172241,0.122597120702267,0.150759607553482,-0.00214477512054145,-0.00765618495643139,-0.177434921264648,-0.0412511602044106,-0.309043467044830,-0.0795054435729981,-0.0446383059024811,-0.00273776683025062,0.00133206776808947,-0.0771394670009613,0.144841223955154,0.300216674804688,0.130217388272285,0.217426404356956,-0.00761345261707902,-0.0245558116585016,0.0392369590699673,0.128224298357964,0.0272001847624779,-0.0108958082273602,-0.125816047191620,-0.0109026264399290,-0.0240116920322180,-0.0387885756790638,0.00181831675581634,-0.0184855330735445,-0.181794196367264,-0.000571555516216904,0.186117693781853,0.155930623412132,-0.105848081409931,-0.00252389814704657,0.103116914629936,0.000154518202180043,0.00558346137404442,-0.00147010316140950,0.0534394681453705,-0.0632454976439476,0.0713336542248726,0.00639961753040552,0.293928742408752,-0.243378207087517,-0.00173007999546826,-0.0668262094259262,-0.0474568344652653,0.253446727991104,0.00451837619766593},
    {-0.161509931087494,-0.00236256117932498,0.0128618003800511,-0.0632335916161537,0.101040862500668,-0.0187913570553064,-0.230285778641701,-0.184945017099381,-0.0188555382192135,-0.186311796307564,-0.358443200588226,-0.0154206920415163,0.00533223198726773,0.0198473781347275,-0.162330970168114,-0.0605006590485573,0.155461221933365,0.00203614961355925,0.0681152492761612,0.0950807183980942,-0.0304783359169960,-0.109120801091194,-0.0973918065428734,0.0256246626377106,0.00145947176497430,0.00206501409411430,0.0527907609939575,-0.0509610697627068,0.0542402863502502,0.367736786603928,0.0887826308608055,0.00235090940259397,-0.0520011372864246,0.0622719600796700,0.294524729251862,0.0212780367583036,0.0638405084609985,0.142297863960266,0.0216872785240412,0.0253772791475058,-0.0194037891924381,-0.00117965356912464,-0.0129350628703833,-0.167040541768074,-0.0186598617583513,0.0947618708014488,0.0269265361130238,0.130609720945358,-0.129091218113899,0.221201553940773,-0.000810507568530738,-0.0279065277427435,-0.000504962750710547,0.228304967284203,-0.0965656191110611,-0.0334026068449020,0.0113571258261800,0.285798490047455,0.0131911905482411,0.0459367185831070,0.0378152132034302,0.228192746639252,0.0663783326745033,0.000639290956314653},
    {0.133910089731216,-0.128926113247871,-0.000377198419300839,-0.121251575648785,-0.00975713785737753,-0.0654745846986771,-0.315727740526199,-0.0868240594863892,0.230422303080559,-0.122751981019974,-0.172563508152962,-0.0512316897511482,-0.248877599835396,0.163593992590904,-0.0173401925712824,-0.134435564279556,-0.0103375371545553,-0.0285741630941629,0.0553489923477173,0.163350850343704,-0.0993457138538361,-0.240417271852493,-0.204374477267265,0.119675777852535,-0.00625743390992284,-0.00110033852979541,0.0524264238774776,0.0164289437234402,-0.0380756221711636,0.300608217716217,0.0945609658956528,0.312478065490723,-0.124236598610878,0.114714659750462,0.160569906234741,0.0261496473103762,-0.00875420495867729,0.113334208726883,0.0111484676599503,-0.0883970707654953,-0.0880734547972679,0.000489087076857686,-0.0576604083180428,-0.0885037258267403,-0.0362827144563198,-0.105647556483746,-0.0566767379641533,-0.161523208022118,-0.00104533683042973,0.177385985851288,0.000607477559242398,0.0309086516499519,-0.000561879540327936,0.0456233136355877,-0.301937133073807,-0.130969405174255,-0.0261577703058720,0.134242400527000,0.300556033849716,-0.0550416260957718,-0.156447619199753,0.197708711028099,0.272998929023743,-0.0136648975312710},
    {0.313739418983460,0.0303397532552481,0.0349724516272545,0.0300180949270725,-0.0187457371503115,0.0785203576087952,-0.214884489774704,0.154556587338448,0.301581054925919,0.111884832382202,0.0979697108268738,0.0000102074518508744,-0.185939252376556,0.0546564050018787,0.163741663098335,0.0794786736369133,-0.247929751873016,0.0933115109801292,-0.0460293032228947,0.499672472476959,-0.105558916926384,-0.274292260408402,-0.263614773750305,0.105187699198723,-0.0100810183212161,-0.000544893206097186,0.0505006611347199,0.0268414560705423,-0.0405932925641537,0.112614400684834,0.145117700099945,0.295021831989288,-0.133005008101463,0.112253271043301,0.0480201207101345,0.0356475934386253,-0.0568692497909069,0.194373100996017,0.0293325968086720,-0.0354190096259117,0.0161129143089056,0.00181139807682484,-0.0109955444931984,0.0146908899769187,-0.0617184378206730,-0.131535395979881,-0.0643088519573212,-0.120331943035126,0.0697396770119667,0.0168078094720840,0.000303296663332731,-0.00504038063809276,-0.000742040283512324,-0.00775216845795512,-0.277867883443832,-0.00263011315837503,-0.00730937253683806,0.0352360121905804,0.235349595546722,0.0402669161558151,-0.0518741048872471,0.141678899526596,0.246681049466133,-0.0243619102984667},
    {-0.207840695977211,0.0964201763272286,0.0563445389270783,0.126511722803116,0.128956690430641,0.0741911903023720,-0.0970930010080338,0.0488843396306038,0.0996696725487709,0.0559713616967201,0.268195450305939,-0.0805956870317459,0.0202191807329655,-0.338314622640610,0.0712260529398918,0.0467747896909714,0.0688357725739479,0.0378871299326420,-0.100848913192749,-0.121608704328537,-0.0304463934153318,0.546235799789429,0.200806245207787,-0.0502650961279869,-0.00878162123262882,0.00230965297669172,-0.0408513061702251,-0.245819538831711,-0.0409479364752770,-0.0804420858621597,-0.203294023871422,-0.139293521642685,0.191226959228516,0.166700050234795,0.0864718481898308,0.0486996062099934,-0.112289823591709,-0.0273261666297913,0.0389368869364262,-0.108802355825901,0.0716143101453781,-0.00246143434196711,0.0352473482489586,0.167895913124084,-0.0137214763090014,-0.0344092436134815,-0.00754941441118717,0.0936999768018723,-0.0652627944946289,0.00874576810747385,0.00115356640890241,-0.0912431105971336,-0.000572972989175469,-0.260006666183472,-0.153656706213951,-0.0761383920907974,0.0198159310966730,-0.133574351668358,0.0455575399100781,0.0798085555434227,0.201180636882782,-0.352369844913483,-0.0398093834519386,0.0123075526207685},
    {0.0712158605456352,0.0384972393512726,-0.000740992662031204,0.0702510029077530,0.0586212649941444,-0.0463104359805584,0.141594931483269,0.0697977170348167,-0.552509844303131,0.117075420916080,-0.0410492084920406,0.0887251049280167,0.00446402188390493,0.0325727835297585,0.0363865792751312,-0.431412070989609,0.209207311272621,-0.00472907861694694,-0.0640344917774200,-0.520887613296509,-0.0740043222904205,-0.156086474657059,0.149841547012329,-0.0946829766035080,-0.00582980969920754,-0.000330602808389813,-0.0599642097949982,0.0653285160660744,0.0666903182864189,0.000199656002223492,0.0435933172702789,0.0796056315302849,0.0628921166062355,-0.00179675337858498,0.0153998835012317,0.0646157041192055,-0.000887157220859081,-0.143923297524452,-0.0145233096554875,-0.136297434568405,0.0524242743849754,0.000231289290240966,0.0355796031653881,-0.0230934042483568,0.0344321615993977,-0.00923784635961056,0.0277945641428232,0.0382697992026806,0.0390891954302788,-0.0736219286918640,-0.000817719614133239,0.0991251915693283,0.00181871780660003,0.287105977535248,0.0446889586746693,0.0586314499378204,0.0120897386223078,0.106149934232235,-0.0521419048309326,0.0197756923735142,-0.0580930784344673,-0.0550109781324863,0.189904138445854,0.0194853227585554},
    {-0.0936285331845284,0.291226238012314,0.0276565458625555,0.0661896020174027,-0.0405555963516235,0.248177379369736,0.0215171463787556,0.0775161609053612,0.198119357228279,0.0200716052204371,0.0933289900422096,-0.164360761642456,-0.0563998818397522,0.159183084964752,0.207855194807053,-0.0190318245440722,-0.00291091366671026,-0.143428146839142,0.0398483239114285,-0.0343607887625694,-0.0761564522981644,-0.230233177542686,-0.0155756017193198,-0.0154009293764830,-0.0126595525071025,-0.00181299587711692,0.0943487510085106,0.312224864959717,-0.215787872672081,0.134402289986610,-0.0445033796131611,0.204620584845543,-0.0134751209989190,0.120448313653469,0.117955461144447,0.0191878546029329,0.0885763317346573,-0.0532577671110630,0.00572874350473285,0.0640873089432716,0.157157450914383,-0.00000929987891140627,0.0804657042026520,-0.0531081594526768,-0.0281692370772362,0.0550007224082947,-0.166734635829926,-0.135604888200760,-0.437782615423203,0.373317033052444,-0.00107179617043585,-0.344509214162827,0.000101129837275948,0.118219070136547,0.0592399090528488,-0.784331321716309,0.0579694993793964,-0.0834788829088211,0.0116593353450298,0.224009290337563,0.621818900108337,0.0682649984955788,0.0550798773765564,-0.0220884513109922},
    {-0.225026518106461,0.141384363174438,0.0177780594676733,0.224314749240875,0.0794764086604118,0.0695879906415939,0.0108970012515783,0.0716478228569031,-0.220752462744713,-0.161919549107552,0.0739485397934914,-0.0978209748864174,0.133629038929939,-0.179545640945435,0.0623224489390850,-0.168919116258621,0.0362855158746243,-0.146956577897072,0.0225454382598400,-0.00230115745216608,0.0335257425904274,0.687328755855560,0.288461446762085,-0.0657389685511589,-0.00549521343782544,0.000359406229108572,0.0757831186056137,-0.279332846403122,-0.134960979223251,-0.0633539408445358,-0.311946541070938,-0.209005221724510,0.306616425514221,0.191394671797752,-0.198904141783714,0.0265437364578247,0.00285645667463541,0.108538821339607,0.0184815134853125,0.0771380737423897,0.0593334063887596,-0.00163791840896010,0.0365829356014729,0.110261611640453,-0.00225814362056553,-0.0224605984985828,-0.0344955213367939,0.0957422330975533,-0.203704953193665,0.226552546024323,0.000772786966990680,0.256362527608871,-0.000532274600118399,-0.308195024728775,0.142302453517914,-0.167535334825516,0.0444633178412914,-0.296056061983109,0.227716326713562,0.150958165526390,-0.118140406906605,-0.0405185967683792,-0.344380825757980,0.00681844446808100},
    {0.0734978392720223,0.165286839008331,0.0315508916974068,0.104484975337982,-0.0800709128379822,0.0556073784828186,0.0328242480754852,0.169379115104675,-0.119309246540070,-0.0298418216407299,0.0369989424943924,0.148816972970963,0.158709168434143,0.0777283310890198,-0.0213344935327768,0.00459943292662501,0.0261330027133226,0.130626231431961,-0.0443177707493305,-0.0390822440385819,-0.00586735876277089,-0.154539108276367,-0.138542667031288,-0.0237357933074236,-0.00523863406851888,-0.000904516084119678,0.00862069148570299,0.0555008463561535,0.135257259011269,0.0393288247287273,0.0636997893452644,-0.0417628884315491,0.00639955000951886,-0.0301346480846405,-0.227348521351814,0.0445848666131496,0.0664083585143089,0.0175463333725929,0.0326870083808899,0.221780449151993,0.0746585056185722,0.000608653121162206,0.0407746247947216,-0.0495378933846951,0.00675854925066233,0.0558991022408009,0.0248319394886494,0.0579281002283096,0.204183697700501,-0.298418045043945,-0.00265838950872421,0.246375799179077,0.00197845511138439,0.107832156121731,0.166873425245285,0.523025095462799,0.0542265400290489,0.0880099609494209,-0.0966647043824196,0.165642574429512,-0.493793576955795,0.0369500741362572,-0.163872927427292,0.0172320492565632},
    {-0.185631871223450,0.0316580198705196,0.0257301572710276,0.00478101149201393,0.0567746572196484,-0.0483814477920532,0.0292099267244339,0.111724987626076,0.115437529981136,-0.0664654746651650,-0.0169791616499424,0.0464057996869087,0.140895813703537,0.0470719933509827,-0.115016072988510,0.0781420394778252,0.164453893899918,0.164894804358482,-0.00653843814507127,-0.156479597091675,0.0500190481543541,-0.0454828701913357,-0.167874231934547,-0.0278893653303385,-0.00711293658241630,-0.00210229004733264,-0.0217158980667591,0.0295246094465256,0.151740744709969,0.148782178759575,0.0830256864428520,-0.00393327558413148,0.0909653380513191,-0.0536287799477577,0.0355792716145515,0.0430993922054768,0.0688284337520599,0.0461602509021759,0.0349387936294079,0.161851257085800,0.00517480680719018,0.000184775184607133,0.0233621075749397,0.0370103269815445,0.0556118339300156,0.255648881196976,-0.0198102518916130,0.0685981288552284,0.102089591324329,-0.154762580990791,0.000148118720971979,-0.00578461820259690,0.000156113543198444,0.117508955299854,0.0414274036884308,0.269885361194611,0.0422071255743504,0.166706264019012,-0.196696594357491,0.0661197975277901,-0.0984881743788719,-0.0762039422988892,-0.0577423050999641,0.0542284138500690},
    {-0.266802459955215,0.00968477129936218,0.0481862388551235,0.129638478159904,0.272052407264710,-0.0178588647395372,-0.0537236109375954,0.0222990252077580,-0.162352219223976,0.0370323918759823,-0.108517907559872,-0.266493707895279,0.197928428649902,-0.0550270229578018,-0.101996243000031,-0.0558330714702606,0.0241335611790419,0.104613997042179,0.0849041491746903,0.162121221423149,0.00898291170597076,0.240763068199158,-0.00564416591078043,-0.0133041786029935,-0.00837844796478748,0.000130272979731672,0.120675019919872,-0.0557743608951569,-0.0742600634694099,0.358646720647812,0.00805386062711477,-0.0962001979351044,0.169757723808289,-0.122449897229671,0.206219181418419,0.0303023029118776,0.118779756128788,0.240110918879509,0.0623823627829552,0.172501280903816,-0.0108305020257831,-0.000345415115589276,0.0117360223084688,-0.0515136644244194,0.0427981764078140,0.224612355232239,-0.0683701932430267,0.230116367340088,-0.120326347649097,0.0479607246816158,-0.00139899167697877,-0.0341320298612118,0.00200800760649145,0.365273267030716,0.125707313418388,0.0727497339248657,0.0382064096629620,0.127976819872856,-0.106328614056110,0.0769589245319367,0.0713277384638786,0.0848516300320625,-0.212901368737221,0.0522467344999313},
    {-0.0158661883324385,-0.0884839519858360,0.0519381165504456,0.0204819217324257,0.228495746850967,-0.0656183138489723,-0.0705249011516571,0.0361648574471474,0.119658567011356,0.0720289945602417,0.0212999414652586,-0.194133862853050,-0.0723453462123871,0.0220845844596624,-0.0241616405546665,-0.0433188267052174,-0.256635040044785,-0.0117231728509068,0.0871483162045479,0.285859763622284,-0.103240452706814,-0.0198298990726471,0.0509855225682259,0.0241562761366367,-0.0102106723934412,0.000528693723026663,0.139044478535652,0.123425066471100,-0.135089740157127,0.282444298267365,0.0804502516984940,0.0727525353431702,0.0154611887410283,-0.0733028054237366,0.0816523358225822,0.0260696709156036,0.0515313446521759,0.104057312011719,0.0716298967599869,0.107555761933327,-0.0729095041751862,-0.000455247965874150,-0.0273288860917091,-0.126544132828712,0.0125073874369264,0.0272747650742531,-0.0557646676898003,-0.134604498744011,-0.0586986839771271,0.169291988015175,-0.00157734868116677,0.0336326584219933,0.00113048148341477,0.240804970264435,0.0537017062306404,-0.156003654003143,0.0128857772797346,0.0685777589678764,0.0353951714932919,0.0162438396364450,-0.131458088755608,0.101366944611073,0.00538865989074111,0.0403666868805885},
    {0.106173716485500,0.136525899171829,0.107450954616070,0.121025621891022,0.164180248975754,0.115604430437088,-0.00514339748769999,0.203123569488525,0.264512151479721,0.117080703377724,0.0899187773466110,-0.0470322109758854,-0.0411413386464119,-0.0326402783393860,0.115198068320751,0.246808901429176,-0.409368842840195,0.0643451139330864,0.00606374302878976,0.621241748332977,-0.0975036472082138,-0.170791074633598,-0.0212737154215574,0.00301965093240142,-0.0119778728112578,-0.00102793471887708,0.187172755599022,0.212214231491089,-0.0717586874961853,0.0923507437109947,0.124255105853081,-0.0975266546010971,-0.114838279783726,-0.00115347909741104,-0.0485660731792450,0.0297582633793354,0.0520423129200935,0.163068741559982,0.108127132058144,0.245312497019768,0.0628407523036003,-0.00102371710818261,0.0354365520179272,-0.0690468624234200,-0.0193527787923813,-0.0554981753230095,-0.0338705070316792,-0.0531320981681347,0.0347123555839062,0.0665850341320038,0.00119842332787812,-0.0231317933648825,-0.00245042028836906,0.163732424378395,0.108227968215942,-0.0102836154401302,0.0431549511849880,0.0348844192922115,-0.0408207848668098,0.178716763854027,-0.0388786457479000,0.224593386054039,-0.0865161493420601,0.0312495250254869},
    {-0.376894176006317,0.163149207830429,0.112321466207504,0.229466766119003,0.0834071189165115,0.101538650691509,0.0491467267274857,0.0822848379611969,0.131796389818192,-0.188014090061188,0.122554980218410,-0.0736608058214188,0.130335777997971,-0.194889962673187,0.0317735187709332,0.177702695131302,0.260160923004150,0.0668920427560806,-0.0432656370103359,-0.145625859498978,0.0413657240569592,0.682128727436066,0.188605010509491,-0.104582458734512,-0.0112658608704805,-0.00175503746140748,0.112158469855785,-0.197454750537872,-0.0246852375566959,-0.120120398700237,-0.319371521472931,-0.398356407880783,0.293982446193695,0.176486253738403,0.0188688263297081,0.0282052438706160,0.0203610584139824,0.0431498475372791,0.108550012111664,0.175939798355103,0.0969638675451279,-0.000722414173651487,0.0653156563639641,0.230269059538841,0.0275834556668997,0.000889201706741005,-0.0313766263425350,0.215855583548546,-0.0476016178727150,0.0770890489220619,0.000961575889959931,-0.178081661462784,-0.00174433935899287,-0.309724420309067,0.0452576950192452,-0.0581669621169567,0.0593288950622082,-0.213920801877975,0.0334929488599300,0.180416956543922,0.258631557226181,-0.121744006872177,-0.343120604753494,0.0606360398232937},
    {0.0131556941196322,0.0720387771725655,0.0540670938789845,0.0553895831108093,-0.0786932632327080,-0.0334354862570763,0.303095221519470,0.127253621816635,-0.495805799961090,-0.0792607143521309,0.0612790361046791,0.0152068249881268,0.0607117190957069,0.246476009488106,-0.00689691398292780,-0.488509953022003,0.622861385345459,-0.0275096315890551,-0.0332175344228745,-0.754500567913055,0.0355383828282356,-0.238782554864883,-0.0947816520929337,-0.0979411527514458,-0.0145440241321921,-0.00209629349410534,-0.00335632357746363,0.169807881116867,0.0311527606099844,0.00523713231086731,-0.0482500381767750,0.109938286244869,0.0367878600955009,0.0217890590429306,-0.0574883595108986,0.0359167531132698,0.118963010609150,-0.187505215406418,0.0523722507059574,0.0210296288132668,0.0604744181036949,0.000751030456740409,0.0628141164779663,0.0523819401860237,0.0949749350547791,0.0923002436757088,-0.00739630218595266,0.123043596744537,0.0914294943213463,-0.0160588566213846,-0.00102885859087110,0.0281957797706127,-0.00181604153476655,0.134282872080803,0.0295089166611433,-0.00689609674736857,0.0513639375567436,-0.0644934251904488,-0.0531761050224304,0.0914486497640610,-0.103575855493546,-0.0171506255865097,-0.0451540052890778,0.0769335255026817},
    {-0.0974381119012833,0.216324359178543,-0.00328513421118259,-0.227050229907036,-0.0547307208180428,0.205283463001251,-0.110692232847214,0.0589234456419945,0.0464955754578114,0.116527654230595,-0.0567928291857243,-0.0137333404272795,-0.132983893156052,0.0156681034713984,0.00156047358177602,0.0495663098990917,-0.110210657119751,-0.0359598286449909,0.0290916655212641,0.0527995713055134,-0.158631175756454,-0.194839522242546,0.0741028487682343,-0.0930837318301201,0.00422077486291528,0.00132285465952009,0.0286315511912107,0.260708987712860,-0.0266307331621647,0.0901081860065460,0.0587777495384216,-0.0888384953141213,-0.267127245664597,0.0338708125054836,0.118024870753288,0.0376239493489265,0.0593436919152737,-0.0308936815708876,-0.0291421040892601,0.0138296149671078,0.134858489036560,-0.000197072149603628,0.0601430088281632,-0.135536640882492,-0.0357013568282127,-0.00648363865911961,-0.132221788167954,-0.0642273128032684,-0.312092721462250,0.224940747022629,-0.00153752369806170,-0.424789309501648,-0.00109269609674811,0.218668743968010,-0.0873852744698525,-0.497889161109924,0.0231984648853540,-0.0136467535048723,-0.0321843586862087,0.112144857645035,0.615341722965241,0.0151723399758339,-0.0763476118445396,-0.0398334749042988},
    {-0.195795640349388,0.0484007708728313,0.00330677884630859,-0.0553099922835827,0.00237538781948388,0.0280620604753494,-0.220505505800247,-0.00884174183011055,-0.165463566780090,-0.370975017547607,-0.125750154256821,0.0143764270469546,0.0118447495624423,-0.190374165773392,-0.0886338576674461,-0.161101803183556,0.100700981914997,-0.146577179431915,0.0133311189711094,-0.0345213934779167,-0.00402525532990694,0.472654014825821,0.238194495439529,-0.0895281136035919,0.0116271441802382,0.000633241725154221,-0.0555649995803833,-0.291611313819885,0.000588975730352104,-0.103536583483219,-0.216635718941689,-0.247953698039055,0.0158390738070011,0.160512477159500,-0.163388684391975,0.0424742773175240,0.0106742186471820,0.0329041108489037,0.00367117836140096,0.00394228519871831,0.0254688020795584,-0.000476231100037694,0.0200054999440908,0.0481711216270924,0.0139410076662898,-0.0136094614863396,-0.0461432263255119,0.0507126264274120,-0.0903551802039146,0.185737937688828,-0.00159173610154539,0.179615065455437,0.000133211549837142,-0.292673468589783,-0.0986840128898621,-0.104509264230728,0.0163021720945835,-0.0930272117257118,0.226676836609840,0.0362180545926094,0.00960862357169390,0.0576080344617367,-0.231104046106339,0.0104689272120595},
    {0.295500338077545,0.0163814928382635,0.00655383011326194,-0.139671191573143,-0.235297158360481,-0.00905668921768665,-0.198161825537682,0.110747776925564,0.0217962190508842,-0.161359161138535,-0.0855533331632614,0.100948616862297,-0.0352488420903683,0.166716217994690,0.0515108518302441,-0.0543252341449261,0.105451092123985,0.193197056651115,-0.0348086655139923,-0.0596448071300983,0.0185765046626329,-0.296839863061905,-0.279348313808441,0.0105894794687629,0.00688834441825748,0.000973459333181381,-0.0845744237303734,-0.0747217312455177,0.0758784189820290,-0.0662101507186890,0.0769218429923058,0.249778717756271,-0.214751422405243,0.0280280187726021,-0.237764924764633,0.0542032867670059,0.0506681315600872,-0.00768671929836273,0.0120302271097898,0.0669463351368904,0.00896930973976851,-0.000873188779223710,0.0151329440996051,0.144956916570663,0.0395466499030590,-0.0245144013315439,-0.0599600188434124,-0.0574035011231899,0.244985878467560,-0.418911486864090,0.000551621254999191,0.139047056436539,0.000228697215788998,-0.0380052067339420,-0.167153611779213,0.423565626144409,0.0189311672002077,0.0789356157183647,0.0623923763632774,0.0159817244857550,-0.309083044528961,0.0609637461602688,0.0127782635390759,0.0323506779968739},
    {0.112680509686470,-0.0684468522667885,0.0160265211015940,-0.237707093358040,-0.0799188166856766,-0.0884670615196228,-0.0753230303525925,0.135401412844658,0.244944557547569,0.0442133210599422,0.0673390626907349,-0.0600256472826004,-0.0443655475974083,0.109033472836018,0.0422549247741699,0.0969604179263115,0.107181906700134,0.223202884197235,-0.0140275135636330,-0.165828824043274,0.0822255238890648,-0.255558937788010,-0.256035834550858,0.0166554749011993,0.00122322607785463,-0.00106750475242734,-0.0771691873669624,-0.0674524903297424,0.0283918213099241,0.0371792241930962,0.0858919844031334,0.279707431793213,-0.121651001274586,-0.0240456238389015,-0.0958328396081924,0.0481985397636890,-0.0649178624153137,-0.00543004507198930,0.0268038213253021,-0.0967437326908112,-0.0331217125058174,0.0000789461555541493,0.0112006179988384,0.215204954147339,0.100192666053772,0.0691034272313118,-0.0837774053215981,-0.0721939355134964,0.112124636769295,-0.347060382366180,-0.00184838951099664,-0.00234912964515388,0.00101877620909363,-0.0400863662362099,-0.221532762050629,0.187132135033607,0.0237824711948633,0.0313706137239933,-0.119384229183197,-0.0409431196749210,-0.0384893640875816,-0.225036010146141,0.161203727126122,0.0769181326031685},
    {0.00672714039683342,-0.0472565554082394,0.0451868325471878,-0.136158689856529,0.160590693354607,-0.0541862994432449,0.00558184087276459,0.0450428277254105,-0.0654229521751404,0.279095083475113,0.128615289926529,-0.258101075887680,0.108476340770721,-0.0628177076578140,-0.00258626393042505,0.0754407644271851,-0.0972459018230438,0.101668611168861,0.0431185401976109,-0.0118688251823187,0.0128147006034851,-0.104128576815128,0.0213522687554359,-0.0147983869537711,-0.00619274703785777,0.000740945630241185,0.0246331878006458,-0.0101009104400873,-0.130122497677803,0.218584269285202,0.0703475028276444,0.0845325961709023,-0.0341064520180225,-0.162702247500420,0.0128019684925675,0.0268882326781750,-0.0853186249732971,0.0829000100493431,0.0564724430441856,-0.135103926062584,-0.0306695718318224,0.00133706536144018,0.0113278916105628,0.00996132846921682,0.0806047171354294,0.0828941091895104,-0.0412364192306995,0.112109690904617,-0.0997450873255730,-0.164071723818779,-0.00141863769385964,0.0501544997096062,-0.000825124618131667,0.217427954077721,0.0276960451155901,0.0685435682535172,0.0314766503870487,0.00226512877270579,-0.233188077807426,0.0115648331120610,0.0396280288696289,-0.232202395796776,0.0675080418586731,0.0763971209526062},
    {0.0992449223995209,-0.181284412741661,0.0257321763783693,-0.233344867825508,0.153677061200142,-0.159730494022369,0.0554211474955082,-0.0801277458667755,0.145232394337654,0.236576959490776,0.179578781127930,-0.0503098443150520,-0.0966344177722931,-0.0751888975501061,-0.0483836047351360,0.0967229604721069,-0.354328095912933,-0.0948712900280953,0.0503117367625237,-0.0149852093309164,-0.0977665930986404,-0.311318218708038,0.206103861331940,-0.0368828140199184,-0.0101292990148067,-0.00116169964894652,-0.00234586955048144,0.172501951456070,-0.0881276726722717,0.107750289142132,0.185049310326576,0.223919868469238,-0.137706324458122,-0.183648616075516,-0.0485778525471687,0.0135135538876057,-0.0902052372694016,-0.153150334954262,0.0532435886561871,-0.153963938355446,-0.118238329887390,-0.000700447941198945,-0.0417252667248249,-0.222141161561012,0.0358632802963257,0.0490277968347073,0.0492891669273376,-0.247957289218903,-0.0439503863453865,0.0316058397293091,0.000345872918842360,0.106183908879757,0.000946733052842319,0.0801086947321892,0.0975159630179405,-0.154585078358650,-0.00504682678729296,0.0411189980804920,-0.237848520278931,-0.0768499001860619,-0.149232074618340,-0.249565213918686,0.271854698657990,0.0510689727962017},
    {0.0722161680459976,-0.0253171920776367,0.0607126653194428,-0.151895463466644,0.100814327597618,-0.0328495837748051,0.0428726002573967,-0.0757600367069244,0.280753046274185,0.0811062082648277,0.00971898715943098,0.0727424696087837,-0.101752407848835,-0.112285085022450,0.0103029990568757,0.297657757997513,-0.495071083307266,-0.136115238070488,0.0209656246006489,0.407446920871735,-0.0537022687494755,-0.330720752477646,0.164062798023224,-0.0654907599091530,-0.00906337518244982,-0.00104353821370751,0.0515849813818932,0.235276877880096,0.0399506948888302,-0.0614467188715935,0.198713466525078,0.0666103959083557,-0.241765797138214,-0.119568713009357,-0.112657770514488,0.00826847273856401,0.0185941718518734,-0.0815143734216690,0.0777759626507759,0.0574950277805328,-0.0243537835776806,-0.00124439760111272,-0.00420036958530545,-0.261858135461807,-0.00637171184644103,0.0429368764162064,0.0873309150338173,-0.185332879424095,0.0128035331144929,0.0665879026055336,-0.000108687432657462,0.0100747952237725,0.0000826853574835695,-0.00530874915421009,0.160374715924263,-0.0773853063583374,0.0115976268425584,0.0997823327779770,-0.261518865823746,0.0368135385215282,-0.0119051476940513,0.00837339553982019,0.128064841032028,0.0338218584656715},
    {-0.260053575038910,0.0383967235684395,0.0726654753088951,-0.0409380570054054,-0.0419970639050007,0.00925596803426743,-0.0392044149339199,-0.154611155390739,0.153670787811279,-0.342699527740479,-0.141653820872307,0.00187040341552347,0.0470214784145355,-0.119733296334744,0.00310172489844263,0.187350034713745,0.0859119072556496,-0.0942111089825630,0.0172352474182844,0.0482306443154812,0.128432199358940,0.465922176837921,0.140294089913368,-0.110454417765141,-0.0121162245050073,-0.000313474563881755,0.0428197421133518,-0.288690537214279,0.0585014894604683,-0.146210983395576,-0.252300083637238,-0.194902986288071,0.150924652814865,0.0950224995613098,-0.00929147284477949,-0.00260812952183187,-0.00900713913142681,0.0999623537063599,0.0837952345609665,0.0916081890463829,0.0251395385712385,0.0000701012104400434,0.0281971935182810,0.0628215819597244,0.0287410952150822,0.0104639893397689,0.0628319904208183,0.160710960626602,-0.0861179530620575,0.136245489120483,0.000676179886795580,-0.149289637804031,-0.000134685527882539,-0.373968929052353,0.0453610420227051,-0.0548360235989094,0.0292044207453728,-0.0291160885244608,0.102666206657887,0.0605883486568928,0.268608003854752,-0.0209728199988604,-0.155157580971718,0.0581605918705463},
    {0.128453403711319,-0.00320857483893633,0.0428961105644703,-0.196290194988251,-0.125955462455750,-0.0606195777654648,0.146681874990463,-0.0129088638350368,-0.395729243755341,-0.0707075744867325,-0.0629395693540573,0.0912080928683281,-0.000174539702129550,0.233618468046188,-0.0128395194187760,-0.403733909130096,0.357782125473022,-0.0960549637675285,0.00193502707406878,-0.326657921075821,0.135269463062286,-0.210454002022743,-0.191140502691269,-0.0567915961146355,-0.0160261392593384,-0.0000800916313892230,-0.105461522936821,-0.0317246243357658,0.0173689406365156,-0.00132416188716888,0.0333150848746300,0.0807698369026184,-0.216988474130631,-0.0772155523300171,-0.0756178945302963,-0.00651684356853366,0.0386673882603645,0.0221600905060768,0.0546825751662254,0.0100463246926665,0.0153209669515491,-0.0000865758920554072,0.0405678972601891,0.00951334740966559,0.102108053863049,0.0637899860739708,0.0923568382859230,0.216956287622452,0.0469998829066753,-0.0743760541081429,-0.000771589577198029,0.0560518391430378,0.000232639271416701,0.0794231146574020,0.0926086083054543,0.150850504636765,0.0377817712724209,0.0124536221846938,0.167274534702301,0.0186176840215921,-0.111404307186604,0.0789768844842911,-0.117537729442120,0.0916705131530762},
    {0.116065286099911,0.0993646085262299,-0.0290723405778408,-0.0424337163567543,-0.0443327017128468,0.119330376386642,-0.0331725701689720,-0.0211931467056274,-0.0472072586417198,0.205283060669899,-0.0290181543678045,0.0705261155962944,-0.0622094906866550,-0.113507002592087,-0.122798338532448,0.157605573534966,-0.138798773288727,0.161542668938637,0.0178425051271915,0.0947339832782745,-0.164327725768089,-0.0405386127531529,-0.0313701592385769,-0.109042525291443,0.0236893761903048,-0.00105643027927727,-0.0456966944038868,-0.0288986712694168,0.102427326142788,0.0100179957225919,0.106986656785011,-0.0470989942550659,-0.0584754012525082,-0.0905884057283402,0.137832984328270,0.0259397849440575,-0.0545862168073654,0.0150908837094903,-0.0549340471625328,-0.0465459860861301,0.0879807248711586,-0.000692434026859701,0.0324686504900456,0.0498072504997253,-0.0423237755894661,-0.0389203764498234,-0.0488199517130852,0.0218756385147572,-0.0928463041782379,0.0123266791924834,0.000138583054649644,-0.355303555727005,0.00104684010148048,0.249031126499176,-0.165375351905823,-0.00113533972762525,-0.0146981850266457,0.129417449235916,-0.00775890843942761,-0.0182389952242374,0.310596853494644,-0.0283273495733738,0.0970646440982819,-0.0465047471225262},
    {-0.0402238517999649,0.0317967124283314,0.0166962388902903,0.0263459458947182,0.000947108608670533,0.0488719455897808,-0.118788227438927,-0.112706944346428,-0.0968361794948578,-0.167139932513237,-0.0932609140872955,0.0448051393032074,0.0515612214803696,-0.168721765279770,-0.186331748962402,-0.0733484551310539,0.0948111042380333,-0.0511642992496491,0.00696683954447508,-0.0142144821584225,-0.0177633296698332,0.104520253837109,0.0240821726620197,-0.0761168077588081,0.0264948736876249,0.000448661478003487,-0.114512227475643,-0.286611497402191,0.0723015293478966,-0.0760163515806198,-0.0534615963697434,-0.114076338708401,0.00300727016292512,-0.00811561569571495,-0.0540659986436367,0.0233915112912655,-0.0913769155740738,-0.0506096594035625,0.0101553993299603,-0.0781434103846550,0.0312376674264669,-0.00182482425589114,0.0165919829159975,0.0463203266263008,0.00708522368222475,0.000172952131833881,0.00555803067982197,0.0873992815613747,0.000904373126104474,0.0102654760703444,-0.0000860954314703122,0.0940852835774422,-0.000365419662557542,-0.0937249213457108,-0.141848683357239,0.123147830367088,0.00279571628198028,0.167341843247414,0.0828361362218857,-0.00163327436894178,-0.00970479846000671,0.0653976127505302,0.0468757525086403,0.00903886370360851},
    {0.423691034317017,-0.0261128898710012,0.00713421590626240,-0.00772817805409432,-0.234089300036430,0.0166152585297823,-0.106924280524254,-0.0286185629665852,0.0909134075045586,0.159224018454552,-0.117712907493114,0.0885862335562706,-0.0788209959864616,0.235740870237350,0.0827097445726395,-0.0616997703909874,0.0418550334870815,0.265909343957901,-0.0221595223993063,0.0617271736264229,0.00593232037499547,-0.335745990276337,-0.383527606725693,0.0440805442631245,0.0244150198996067,0.0000328902715409640,-0.0718416646122932,-0.144494220614433,0.0111981816589832,-0.126230984926224,0.156111165881157,0.428921580314636,-0.133887454867363,0.00709217227995396,-0.108163110911846,0.0245686545968056,-0.0195705145597458,-0.0574800334870815,0.00704354839399457,-0.0151351084932685,-0.00122104189358652,-0.000384034530725330,-0.000163378819706850,0.228199943900108,0.0234903302043676,-0.127039879560471,-0.0575806275010109,-0.0712307095527649,0.148803904652596,-0.399774163961411,0.00174081488512456,0.0317501537501812,-0.000857237144373357,0.0148713467642665,-0.195718467235565,0.234145507216454,-0.00454352563247085,0.000166064986842684,0.110295712947845,-0.0425631776452065,-0.177475258708000,0.167672812938690,0.196089804172516,0.0165769774466753},
    {0.292426556348801,0.0149419242516160,0.0344205014407635,-0.0399222373962402,-0.0905983373522759,0.0399786196649075,-0.0308454949408770,0.0649429634213448,0.203820422291756,0.397975444793701,-0.0194389801472425,0.00397930433973670,-0.0872079357504845,0.186070069670677,0.146529480814934,0.102490372955799,-0.0227109957486391,0.273192048072815,-0.0408747233450413,0.0580153316259384,0.0539612025022507,-0.234752014279366,-0.327493637800217,0.0472111999988556,0.0186837147921324,0.0000408448322559707,-0.0134288342669606,-0.116657853126526,-0.0300217662006617,-0.0400900132954121,0.145961746573448,0.264137864112854,-0.0835635736584663,0.0557699687778950,-0.0700595229864121,0.0174472332000732,-0.176538527011871,0.00534057524055243,0.0307124275714159,-0.111830353736877,0.0264204852283001,0.0000614910022704862,0.0253385044634342,0.197316542267799,0.0597502887248993,-0.221638724207878,-0.0671337619423866,-0.0368110500276089,-0.00867389421910048,-0.275063395500183,-0.000445298326667398,0.0512742027640343,-0.000462018389953300,0.00578132830560207,-0.190761595964432,-0.0260095763951540,0.0183763448148966,-0.156742826104164,-0.00674539385363460,-0.00360231613740325,-0.0270771421492100,0.0229667220264673,0.300283670425415,0.0517532005906105},
    {0.190788894891739,0.122200578451157,0.0695824623107910,0.0740600451827049,0.0574857741594315,0.115511909127235,0.0394689366221428,0.0201282743364573,-0.167795211076736,0.541062116622925,0.0397925116121769,-0.0771662220358849,0.111132077872753,-0.00854129809886217,0.0591731593012810,0.125208541750908,-0.0523477196693420,0.159300625324249,-0.0588112697005272,-0.00434845825657249,-0.0262427106499672,-0.196232169866562,-0.0741678103804588,-0.0127194495871663,0.00902807526290417,0.00175194046460092,0.0197838284075260,0.0173448864370585,-0.0863784030079842,0.110070325434208,0.131501019001007,-0.0709475949406624,-0.0144795738160610,-0.0672189518809319,-0.0203803144395351,0.00250511011108756,-0.214224338531494,0.0732789039611816,0.0652077943086624,-0.116616107523441,0.0787990018725395,-0.00156184588558972,0.0472061112523079,-0.0554636679589748,0.0293565969914198,-0.224504679441452,0.00642377324402332,0.244292974472046,-0.106755010783672,-0.211145728826523,-0.000857481965795159,0.188283413648605,0.00133271201048046,0.195006251335144,0.0675246864557266,0.0640709027647972,0.0387171469628811,-0.131448432803154,-0.186618834733963,0.111065857112408,-0.0509876459836960,0.0294638480991125,0.204715549945831,0.0415127500891686},
    {0.167694345116615,-0.0511201396584511,0.0253386572003365,-0.00875268410891295,0.0251085553318262,-0.0462953783571720,0.0888924822211266,-0.143295153975487,-0.0590041279792786,0.471142232418060,0.0833840668201447,0.131664454936981,-0.0364481583237648,-0.0773835927248001,-0.0660059973597527,0.0975370258092880,-0.109399206936359,-0.000243238871917129,-0.0759849175810814,-0.234256759285927,-0.116937957704067,-0.316740900278091,0.151492059230804,-0.0669493973255158,0.00335274031385779,-0.00149203010369092,-0.116347171366215,0.153140977025032,0.0151021331548691,-0.0105250393971801,0.237450659275055,0.104334965348244,-0.0343570262193680,-0.165360584855080,-0.0285707376897335,-0.00633433694019914,-0.158100455999374,-0.212861776351929,0.0365321449935436,-0.180870532989502,-0.0333329029381275,-0.0000931584727368318,-0.0204483196139336,-0.281213164329529,-0.0197741258889437,-0.0939267277717590,0.0940895229578018,-0.0523485578596592,0.0233119186013937,-0.183193743228912,0.000153435888933018,0.213488250970840,0.000618590333033353,0.0375966653227806,0.124450787901878,0.0149473743513227,-0.00549509050324559,-0.0305469818413258,-0.282408773899078,-0.0191430225968361,-0.218745395541191,-0.0483077019453049,0.305518358945847,0.0100269634276629},
    {0.0931195020675659,-0.0186876691877842,0.0237108059227467,-0.0226950924843550,0.0139267854392529,-0.0156407803297043,0.0444001182913780,-0.220839902758598,0.113502770662308,0.319579690694809,-0.0573368594050407,0.0939646586775780,-0.0885582715272903,-0.107132971286774,-0.0323053151369095,0.170428901910782,-0.289569228887558,-0.123463898897171,-0.0458547249436379,0.154738858342171,-0.0551813244819641,-0.319068998098373,0.185703188180923,-0.0811344236135483,0.00352498702704906,0.000692886940669268,-0.103975273668766,0.216677829623222,0.108733266592026,-0.113913774490356,0.253024905920029,0.116601683199406,-0.129076838493347,-0.152999237179756,-0.0503790043294430,-0.0117244804278016,-0.0125386901199818,-0.203782960772514,0.0399485044181347,-0.0835058391094208,-0.0186781659722328,0.00115409935824573,-0.0249069947749376,-0.347169190645218,-0.0574394538998604,0.0112889502197504,0.109293676912785,-0.113417990505695,0.0508201867341995,-0.128909662365913,-0.0000769682956160978,0.0855351388454437,-0.00112811103463173,0.0148932691663504,0.111110970377922,-0.0143948914483190,-0.0136466873809695,0.0722583830356598,-0.333958745002747,-0.00102146132849157,-0.0778590887784958,0.0663418099284172,0.206718057394028,-0.00977365393191576},
    {-0.0410081632435322,0.0576131232082844,0.0346980467438698,0.0126980431377888,-0.0654640570282936,0.0650563463568687,-0.111803017556667,-0.229049816727638,0.0571156702935696,-0.0771663784980774,-0.206852033734322,-0.0731137618422508,0.0287469066679478,-0.0708144232630730,0.0512291640043259,0.0970503166317940,-0.0829386860132217,-0.127944812178612,0.0152592798694968,0.251684010028839,0.133241161704063,0.137020155787468,0.0897634178400040,-0.0596919432282448,-0.00197691400535405,0.000150492734974250,-0.0132732214406133,-0.216788455843925,0.0518243014812470,-0.0308037642389536,-0.101711288094521,-0.0492795072495937,0.134628713130951,0.0427572615444660,0.0385096669197083,-0.0194935277104378,-0.101878315210342,0.144850477576256,0.0472665131092072,-0.0691009536385536,0.0363397672772408,0.000300231855362654,0.00610798317939043,-0.130801469087601,-0.0332826077938080,-0.0880913212895393,0.0893711745738983,0.148500457406044,-0.0913725942373276,0.0258049555122852,-0.00122195843141526,-0.0202658753842115,0.000373926508473232,-0.108184397220612,-0.0248354226350784,-0.0563459992408752,0.00354932015761733,0.143553763628006,0.0735818147659302,0.0322647355496883,0.111439585685730,0.0567286387085915,0.0859884321689606,0.00657704100012779},
    {0.106042526662350,-0.0802811011672020,-0.00795286335051060,-0.0752477794885635,-0.0257938187569380,-0.0489452369511128,-0.0230690706521273,-0.131892085075378,-0.227366775274277,0.133586615324020,-0.0371516644954681,0.0445477180182934,-0.0920414999127388,0.00213451148010790,-0.0282419044524431,-0.253722608089447,-0.00398626457899809,-0.149098053574562,0.00827999599277973,0.0793171226978302,0.130310133099556,-0.0271802302449942,0.00194349931553006,0.0281436815857887,-0.00960844568908215,-0.000735371839255095,-0.159651175141335,-0.0715537965297699,-0.0346225388348103,-0.0162654966115952,0.0882132351398468,-0.0306443013250828,-0.152695536613464,-0.148034080862999,-0.00689110672101378,-0.0248583294451237,-0.0816479846835136,0.0638674199581146,0.0114112589508295,-0.106350898742676,-0.0312495902180672,0.000576985767111182,-0.0119664948433638,-0.0672054216265678,0.0400586016476154,-0.0414849705994129,0.144930437207222,0.165659293532372,-0.0113057326525450,-0.154762387275696,-0.000209779827855527,0.178799912333488,-0.000934192095883191,0.126732409000397,0.0578954704105854,0.134707108139992,-0.00812019128352404,0.0725453868508339,0.199122160673141,-0.0856405720114708,-0.182587176561356,-0.00802042335271835,0.0299086850136518,0.0412885360419750},
    {0.111638829112053,0.0534687712788582,-0.0196672342717648,0.121845148503780,0.100499115884304,0.0240634083747864,0.227997571229935,0.0347209535539150,0.162211775779724,0.0118977343663573,0.184444740414619,-0.110694497823715,0.00620169658213854,-0.00586068257689476,-0.0926946550607681,0.135363653302193,-0.0763517022132874,-0.136202484369278,0.0190871618688107,-0.104335017502308,-0.0903545692563057,0.0518561303615570,-0.0716441571712494,-0.0590423196554184,0.0211972594261169,-0.000919774407520890,0.0121745700016618,0.186985835433006,-0.0475271828472614,0.0472046881914139,-0.0839330703020096,0.147693201899529,0.200665742158890,-0.0943737626075745,0.0662825033068657,-0.0156964696943760,0.0396151877939701,-0.0336945615708828,-0.0372459553182125,-0.0523899607360363,0.0633815750479698,0.000821840425487608,0.0311201810836792,0.0126371914520860,0.00267104804515839,0.116506963968277,0.0155932838097215,-0.159903481602669,0.120139256119728,0.264770835638046,0.00000941822327149566,-0.174715772271156,0.00150407594628632,0.000574100587982684,0.0361529625952244,-0.101289816200733,-0.00761659210547805,-0.0443380475044251,-0.0834798291325569,-0.0459703095257282,-0.122788369655609,-0.101223573088646,0.0841939449310303,-0.00302161020226777},
    {-0.187069028615952,0.119607239961624,0.0633267238736153,0.0993661284446716,0.238491192460060,0.0938787534832954,0.275345265865326,0.00811007432639599,-0.116526797413826,0.00313444482162595,0.128721207380295,-0.167212754487991,0.195561945438385,-0.0935026705265045,-0.154324427247047,-0.0521581135690212,-0.00778959924355149,-0.233241915702820,0.00305870687589049,-0.0383387543261051,0.00971113704144955,-0.0737570151686668,0.0479181446135044,-0.0266502667218447,0.0286387670785189,-0.00182094052433968,0.0178237725049257,0.205345466732979,-0.0640340000391007,0.0901359915733337,-0.138784155249596,-0.261335521936417,0.0391972213983536,-0.173447757959366,-0.0735003575682640,-0.0256474148482084,-0.0464268475770950,-0.111094258725643,0.0464743077754974,-0.0470269694924355,0.0799748077988625,0.000729812833014876,0.0486160293221474,-0.102707177400589,0.0273948963731527,0.124161817133427,0.0434283539652824,0.0651336982846260,0.0805261358618736,0.166596844792366,0.00137297366745770,0.146498486399651,-0.00201181764714420,-0.00493020936846733,0.293572366237640,0.0468574576079845,0.0286191161721945,0.148810416460037,-0.146932199597359,0.0727526620030403,-0.179575249552727,-0.0515409484505653,-0.0209024176001549,0.0362513102591038},
    {-0.0809121280908585,-0.0251571759581566,0.0467789843678474,0.0967449098825455,0.0862024128437042,0.0211407002061605,0.281411498785019,-0.00453063659369946,-0.0185949299484491,0.219974815845490,0.0619486086070538,-0.0498089157044888,0.0211387947201729,0.185651868581772,0.0552453622221947,-0.0858869478106499,-0.121464356780052,0.0312408916652203,0.0136909438297153,0.104413084685802,0.0220657363533974,0.0802794843912125,0.00949074607342482,0.0745370835065842,0.0316596589982510,-0.00115855922922492,0.0825259089469910,0.139699250459671,-0.114795207977295,-0.0510526299476624,-0.0803926885128021,0.0117997741326690,0.0583069622516632,-0.0404293760657311,-0.0648396015167236,-0.0335280336439610,0.132423341274261,-0.130505129694939,0.0417728200554848,0.0646778792142868,-0.0000529390017618425,0.000748542719520629,0.00681383721530438,0.177851662039757,0.0360055863857269,-0.0421046577394009,-0.0449810810387135,-0.101774275302887,0.0569119453430176,0.0369842313230038,-0.00126650242600590,0.0271681640297174,-0.00165191362611949,-0.0592251978814602,0.286275088787079,-0.0713424757122994,0.00355366058647633,-0.219556316733360,0.105814047157764,-0.0271333958953619,-0.0855480805039406,0.0642156526446343,-0.00281864125281572,0.0399948582053185},
    {-0.328958839178085,-0.0101555436849594,0.0617460757493973,0.105603784322739,0.159268364310265,0.0335002131760120,0.217180415987968,0.0450949184596539,0.0553469769656658,0.0206024684011936,0.0988735482096672,-0.0346397496759892,-0.0139439981430769,0.112540535628796,0.0640066564083099,-0.0388733483850956,-0.0943735018372536,-0.0336696356534958,-0.0105652529746294,0.145906046032906,0.0639590993523598,0.534106910228729,0.102591879665852,0.0658109933137894,0.0292341746389866,-0.00206341105513275,0.141106382012367,-0.0469195544719696,-0.0670803189277649,-0.0809733346104622,-0.213272333145142,-0.213965252041817,0.142629668116570,0.186949491500855,-0.0171372313052416,-0.0406480990350246,0.0924769714474678,-0.0244030933827162,0.0566089227795601,0.0995189473032951,0.00692467531189323,-0.00140047213062644,0.0197983924299479,0.197655543684959,0.0595122203230858,-0.188607275485992,-0.0699141621589661,-0.0995126217603684,-0.120506219565868,0.316350907087326,-0.00123887008521706,0.00147305207792670,0.000748228805605322,-0.263077050447464,0.149356573820114,-0.331390649080277,0.0159663856029511,-0.420684248209000,0.213282376527786,-0.0119732189923525,0.211982086300850,-0.0529640763998032,0.0794433951377869,0.0623288452625275},
    {-0.357580155134201,0.0843559578061104,0.0867281481623650,0.215685397386551,0.0968682989478111,0.0881313979625702,0.147572383284569,0.0510679371654987,-0.285564720630646,-0.229135096073151,0.125419467687607,-0.0574509128928185,0.165010660886765,-0.0320742838084698,-0.00802949443459511,-0.133670717477798,0.187954440712929,-0.0667880699038506,-0.0835960656404495,-0.0393988043069840,-0.0210987497121096,0.646504521369934,0.123943470418453,-0.0140176713466644,0.0199155081063509,-0.000297041988233104,0.0948739871382713,-0.0685926824808121,-0.0401090569794178,-0.0346332453191280,-0.328425705432892,-0.437570452690125,0.240655064582825,0.185099124908447,0.0513759516179562,-0.0442560575902462,0.118473924696445,0.111066974699497,0.0821423307061195,0.165599107742310,0.0537880994379520,0.000644164858385921,0.0371042937040329,0.174239546060562,0.0278555341064930,-0.194424748420715,-0.0446875914931297,0.183355927467346,-0.109279215335846,0.287174522876740,-0.00203976244665682,0.0583765879273415,-0.000627779343631119,-0.288890272378922,0.148342058062553,-0.0814671367406845,0.0318658426403999,-0.355696797370911,0.220621511340141,0.0808041468262672,0.253699690103531,-0.0504616983234882,-0.0148726049810648,0.0535261854529381},
    {-0.225016191601753,-0.0307843666523695,0.0482079461216927,0.164841592311859,-0.0317353829741478,-0.0392519980669022,0.167076915502548,0.0203834958374500,-0.220362022519112,-0.207718059420586,0.120144180953503,0.126384347677231,0.0874597206711769,-0.0375347211956978,-0.0448352694511414,-0.171394363045692,0.339855253696442,0.0737653523683548,-0.150336295366287,-0.370870918035507,-0.120028547942638,0.476210385560989,0.136472418904305,-0.0740633830428124,0.00957627315074205,0.000282217166386545,-0.121264502406120,-0.0329854637384415,0.0283787138760090,-0.0987504497170448,-0.227601483464241,-0.198819190263748,0.239963963627815,0.0474214814603329,0.0785158351063728,-0.0381357483565807,0.149198919534683,-0.0711063742637634,0.0593004561960697,0.0682304725050926,-0.0231144819408655,0.00188205251470208,-0.0115122292190790,0.218092933297157,-0.00588445551693440,-0.0328767858445644,-0.0438349917531014,0.00440216716378927,0.109131582081318,0.00761023163795471,0.000921402592211962,0.0518168471753597,0.000314439850626513,-0.342438548803329,0.0841113552451134,0.133750885725021,0.00202979892492294,-0.247603729367256,0.166388288140297,-0.00278481515124440,0.0521933548152447,-0.0227683447301388,-0.0629367306828499,0.0287378858774900},
    {-0.0940999165177345,0.0223358143121004,0.0423513464629650,0.0865784808993340,-0.0264942906796932,0.0108123142272234,0.176752552390099,0.0529412627220154,0.0659791305661202,0.0132612287998199,0.0761682614684105,0.0186636317521334,0.0753210559487343,0.0465247519314289,0.0663798749446869,-0.0247126445174217,0.133305117487907,0.132274046540260,-0.112862944602966,-0.142595157027245,-0.0896352976560593,0.124284215271473,0.105822563171387,-0.0646663680672646,0.00673393579199910,0.000300920073641464,-0.111833296716213,0.102316908538342,0.0305090509355068,-0.0560229308903217,-0.0937555730342865,-0.0665192753076553,0.0376271605491638,-0.00646502012386918,0.0390158258378506,-0.0256643742322922,0.176290795207024,-0.0874463096261025,0.0554639883339405,0.0211780015379190,0.00218827067874372,0.000856369093526155,-0.0126482695341110,0.173650592565537,-0.0453412644565105,0.0652197673916817,-0.101271294057369,-0.0850977674126625,0.138861611485481,-0.109034299850464,0.000647359760478139,-0.0544397383928299,-0.000585760513786227,-0.106925822794437,0.0556600205600262,0.126233890652657,-0.00174790399614722,-0.161024212837219,-0.0188807528465986,0.0271909423172474,0.0741633325815201,0.0570061020553112,-0.0788005366921425,0.00215728906914592},
    {0.0617844872176647,0.180496126413345,0.0512661449611187,0.0747400149703026,-0.0415712073445320,0.179991409182549,0.0493050925433636,0.136548370122910,0.118119426071644,-0.0546640157699585,0.0244493838399649,-0.182036712765694,0.232015013694763,0.157539740204811,0.196307331323624,0.0825678333640099,0.0626314207911491,0.156931787729263,-0.00102423434145749,0.0866862758994103,0.0518731959164143,-0.0852126181125641,-0.0963999181985855,0.00941286701709032,-0.00204017688520253,-0.000694486952852458,0.140100732445717,-0.0474974066019058,-0.0630300045013428,0.182315751910210,-0.191998034715652,-0.0437726862728596,0.101650275290012,0.139592334628105,0.0664024874567986,-0.0198928359895945,-0.0342550985515118,0.267347276210785,0.0566036552190781,-0.0326371304690838,0.100260414183140,-0.000701523094903678,0.0284220967441797,0.0796915367245674,-0.0553830042481422,-0.0970922186970711,-0.116741627454758,0.0793472453951836,-0.0276045277714729,0.0124055333435535,-0.00145589676685631,-0.0940172448754311,0.000125366452266462,0.0768607780337334,-0.0416160076856613,0.00708669237792492,0.0201843865215778,0.0568560138344765,0.0641798451542854,0.116679832339287,0.105875357985497,0.0233120992779732,0.0726737752556801,-0.00587298721075058},
    {-0.000490080972667784,-0.0390313938260078,0.00462618656456471,0.100312709808350,-0.00601771101355553,0.0232861414551735,0.0302766356617212,0.0579027868807316,0.133324533700943,0.0811660364270210,0.202840730547905,-0.0476131811738014,0.0270954109728336,-0.0312924906611443,0.0141071379184723,-0.0165992397814989,0.126644849777222,0.0645128861069679,0.0295513048768044,-0.172056719660759,0.0145117975771427,0.0302896127104759,-0.0363092124462128,0.116490244865417,-0.0115689821541309,-0.000201031856704503,0.0884900540113449,0.125072479248047,-0.0903735980391502,0.0548753477632999,-0.0672666877508164,0.0549726225435734,0.0785240530967712,-0.00706408405676484,0.0681758970022202,-0.0177951790392399,0.0505548678338528,0.0461187399923801,0.0340757034718990,-0.0690469294786453,-0.0193450655788183,0.000760274473577738,-0.0203713681548834,0.0514578446745873,0.0112313553690910,0.00860118865966797,-0.0321280546486378,-0.0638647302985191,0.0212934091687202,-0.0810855403542519,-0.00102353503461927,0.0463610030710697,-0.00208787247538567,0.00788087118417025,-0.109543502330780,-0.0285091027617455,-0.00704456865787506,-0.123885065317154,-0.0245311297476292,-0.0611780621111393,-0.130429774522781,-0.158053427934647,0.0706452131271362,0.0329121947288513},
    {-0.0678525194525719,0.105261914432049,0.0254860464483500,-0.0115306777879596,-0.0270127896219492,-0.0139338634908199,-0.141461461782455,0.146732732653618,0.0113809276372194,-0.0875367000699043,-0.124083608388901,0.0944186374545097,-0.0164198074489832,0.118530705571175,-0.122561976313591,-0.0551426671445370,-0.0171460304409266,-0.119675315916538,-0.0663650408387184,0.132444664835930,-0.0316487140953541,-0.0235953684896231,-0.0976034328341484,-0.0414442867040634,0.00888033490628004,-0.000372168811736628,-0.0143004953861237,-0.0126646906137466,0.0202110186219215,-0.0498573631048203,0.191720813512802,0.0332082062959671,-0.0686048418283463,0.0247042290866375,0.115046374499798,-0.0316185280680656,0.0679793283343315,0.156391337513924,0.0137707078829408,0.0949303135275841,0.0732450410723686,-0.00112492253538221,0.0462258718907833,-0.131094366312027,0.0438293367624283,0.0657372847199440,0.0784320682287216,0.0526117570698261,0.0146820265799761,0.158253863453865,-0.000603602675255388,-0.137837290763855,-0.000788884237408638,-0.0639278143644333,-0.116123341023922,-0.00966263934969902,0.0298094544559717,-0.136876851320267,0.0694550499320030,0.0473971515893936,0.0612806603312492,0.132583960890770,-0.196250334382057,0.0437418445944786},
    {0.00366474385373294,-0.109378710389137,-0.00638059200718999,-0.182553634047508,-0.0409656800329685,-0.129026412963867,0.0341884642839432,-0.0969969779253006,-0.0980219095945358,-0.144760355353355,0.0304848197847605,0.0311419051140547,0.0530336461961269,-0.119849734008312,-0.0127555588260293,-0.105365611612797,0.214829444885254,-0.106160357594490,-0.0426199212670326,-0.134558111429214,0.0796212479472160,0.0745605006814003,-0.0301798041909933,0.00984094385057688,0.0198462158441544,0.000952300033532083,-0.0359278917312622,0.00263056717813015,0.0798243507742882,-0.0161963962018490,-0.0571059398353100,-0.0713220760226250,-0.0939827114343643,-0.117679871618748,-0.00713719986379147,-0.0514038391411305,-0.166366577148438,-0.00119044736493379,-0.00351657299324870,-0.154435694217682,-0.0537998378276825,0.00142692914232612,-0.0226894505321980,-0.169760435819626,0.0330649502575398,0.0192855596542358,0.0805900543928146,0.102609045803547,-0.00899698585271835,-0.0600794591009617,-0.000698191113770008,0.0323336608707905,0.0000601146202825476,-0.113275431096554,0.0454263165593147,0.0652453452348709,-0.0177034549415112,0.217007070779800,-0.0638263970613480,-0.108120284974575,0.00949134863913059,-0.164390608668327,0.119589880108833,0.0332581587135792},
    {0.177737548947334,-0.133352234959602,0.0134092764928937,-0.0339913964271545,-0.0207701064646244,-0.0966541469097138,0.0343600884079933,-0.125062495470047,0.0342406146228313,0.162362605333328,-0.146178156137466,0.156142696738243,-0.0862591043114662,0.0390178449451923,0.165167763829231,0.140019342303276,-0.0381011068820953,0.139303177595139,0.0576343834400177,-0.0298120882362127,0.139486685395241,-0.0544898472726345,0.183705911040306,0.135044440627098,0.0270513873547316,-0.000206752767553553,0.0339518263936043,-0.0595206767320633,0.0382223390042782,0.0508852377533913,0.102386444807053,0.0655911341309547,0.0354625284671783,-0.128339186310768,-0.0495301522314549,-0.0685870572924614,0.0599664300680161,-0.0284346062690020,0.0215327721089125,0.0289060045033693,-0.0693847015500069,-0.00205103307962418,-0.0285046212375164,-0.0285660643130541,0.0424793139100075,-0.0839251354336739,0.0307309236377478,0.0108762048184872,-0.0111517161130905,-0.205596178770065,0.000434641377069056,-0.0619638040661812,-0.00149642571341246,0.182234317064285,0.153257220983505,0.120345532894135,-0.0152609068900347,0.0178190954029560,0.0234677344560623,-0.107780054211617,-0.0368828028440475,0.129179030656815,-0.0886530727148056,0.0476978607475758},
    {0.0365093387663364,0.00333178509026766,0.0759643912315369,-0.0462832935154438,0.102935269474983,0.00545300403609872,-0.133025959134102,-0.0503336451947689,0.257665157318115,-0.171241343021393,-0.0813343077898026,0.0703746527433395,-0.115026913583279,-0.00272216950543225,0.120555028319359,0.211401432752609,-0.148019269108772,-0.145759910345078,0.105349369347095,0.0654638931155205,0.200378566980362,-0.147594615817070,0.223071083426476,0.158294469118118,0.0267675593495369,-0.000186943216249347,0.0646564215421677,-0.108700983226299,0.0705716535449028,0.107945263385773,0.0816616937518120,0.0657863467931747,-0.0330056399106979,0.0435894727706909,-0.0645429044961929,-0.0740248635411263,0.145874693989754,-0.0208486374467611,0.0753954797983170,0.238751262426376,0.00234221224673092,0.000140124233439565,0.0233522672206163,-0.197679728269577,0.0681939423084259,-0.0899219438433647,0.0462203584611416,-0.0480522997677326,-0.120696231722832,0.105343483388424,0.0000997806564555503,-0.166869297623634,-0.000272236415185034,0.206014782190323,-0.0260769687592983,-0.102984882891178,0.0306104645133019,0.0336388535797596,-0.0562722235918045,0.0270712319761515,0.138332560658455,0.0259685665369034,-0.186714634299278,0.0793259888887405},
    {0.0734461992979050,0.0931750312447548,0.109085239470005,-0.0631545707583427,-0.0304209440946579,0.0481601245701313,-0.275471389293671,-0.000944862316828221,0.0320608057081699,-0.643786847591400,0.0127873169258237,-0.0766953527927399,-0.0187988542020321,-0.107717789709568,0.0578672699630261,-0.0639374256134033,0.0780358016490936,-0.307484924793243,0.0376055277884007,0.0267609357833862,0.105447910726070,-0.252723813056946,-0.00949752237647772,0.0926212891936302,0.0180666372179985,0.000260124303167686,-0.0627068653702736,-0.0186205115169287,0.0412380024790764,0.0771924331784248,-0.0607338920235634,0.117666125297546,-0.0687927231192589,0.0977855995297432,-0.00602636346593499,-0.0675119459629059,0.222210317850113,0.0222422666847706,0.115439660847187,0.380463123321533,0.0439253970980644,-0.00105923460796475,0.0428552031517029,-0.113223239779472,0.0573077127337456,0.000933906529098749,0.0595324635505676,0.0820513591170311,-0.0654891207814217,0.175230294466019,0.0000768551180954091,-0.167417585849762,-0.000357504002749920,0.111496597528458,-0.188597381114960,-0.0597652122378349,0.0543899349868298,0.158514872193337,-0.0225395020097494,0.126089021563530,0.0630334764719009,-0.0883516967296600,-0.349747002124786,0.0794944688677788},
    {0.131069630384445,0.00676877703517675,0.0774101242423058,-0.0197797492146492,-0.0789965316653252,-0.0512237958610058,-0.220991507172585,0.0651841238141060,-0.119496852159500,-0.490716218948364,-0.130379557609558,0.0779437720775604,-0.0904629603028297,-0.128918737173080,0.0318804904818535,-0.162246331572533,0.100959211587906,0.00463175214827061,-0.0675788447260857,0.0117859235033393,-0.0332126170396805,-0.168671041727066,-0.100693441927433,0.0111457342281938,0.00793664623051882,0.000351721420884132,-0.313199043273926,0.00444094324484468,0.00997669622302055,-0.0230024997144938,0.00697457324713469,0.115876711905003,-0.0654592067003250,-0.0657057017087936,0.0230117291212082,-0.0502579361200333,0.185638815164566,-0.0925772339105606,0.0997930094599724,0.308875113725662,-0.0129122771322727,0.000365937128663063,0.00889326073229313,0.177343517541885,0.0347638316452503,0.128761231899261,0.00614764308556914,-0.0272161774337292,0.139453679323196,-0.0618220604956150,0.000969338871072978,-0.0319099090993404,-0.000690364104229957,0.101843640208244,-0.166646078228951,0.107021942734718,0.0350420586764813,0.121227040886879,0.0907198563218117,0.0691543519496918,-0.254677087068558,0.0803745687007904,-0.583200037479401,0.0698867663741112},
